-8.2191096020e-02 1.1621064111e-01 2.2462775557e-01 3.1029486271e-02 -4.4691728052e-02 -2.0997916208e-03 -1.6990972833e-01 1.0928482118e-01 1.4103114087e-01 2.9726493925e-01 1.8876000644e-01 -3.6376884225e-01 2.7116425867e-01 2.3116380526e-01 4.0687553075e-01 -1.7827453045e-01 3.7952101253e-02 -8.6268757559e-02 5.3646231215e-01 -6.9424544776e-01 -2.9199941316e-01 -4.4887187983e-01 8.2706987380e-02 1.9488825396e-01 8.8257673817e-02 1.1806702009e-01 5.0082189333e-01 2.1620308296e-01 9.2946364137e-02 3.5498360136e-02 2.2240433477e-01 -1.4366988156e-01 -3.2329083745e-01 -4.5663793875e-01 8.0791012268e-02 -2.1217087616e-01 -3.2836292479e-01 3.7550711169e-01 3.4712625999e-01 2.5585844195e-01 -8.7054121001e-02 6.0521485474e-01 -4.3470863759e-01 -1.0743191315e-01 9.7538496615e-04 1.6182382659e-01 -2.5339356145e-03 -8.6814410638e-02 2.4726857976e-01 5.5593573996e-01 1.0333607773e-01 6.0906607741e-02 2.9536995217e-02 2.5431039707e-01 1.3327368441e-01 4.6318933177e-02 -1.4871988283e-02 -1.5542188573e-01 -3.3043717910e-01 -3.1361062583e-02 1.5002285666e-01 -2.3907069959e-01 3.5419595724e-01 4.1640731152e-02 -1.6717664673e-01 3.0027978937e-01 -1.1004996414e-01 -1.1406098496e-01 -3.7284378855e-01 -7.4620688911e-02 -9.7674282956e-02 1.6426580726e-02 2.0386580702e-01 1.4282758838e-01 1.5454294558e-01 2.4825112276e-01 -3.4252471955e-02 3.0433293117e-02 4.3745417630e-01 -2.2642509445e-01 -2.6073282057e-01 -3.8063884708e-02 6.6803169621e-02 4.1536521486e-01 -3.7428630249e-01 -3.3669955900e-01 8.9626657957e-02 1.7608012257e-01 -1.6947467769e-01 4.7325346868e-01 1.4343790062e-01 -7.8073225097e-03 1.1557494004e-01 7.8872582164e-02 -3.1521586843e-01 -6.6403403499e-02 -1.2199415114e-01 1.0290785142e-01 -3.0012245594e-02 6.9414488655e-02 -1.7502424475e-02 1.8430504065e-01 5.0028395589e-01 6.6847160162e-01 -2.4915002666e-01 7.1568918106e-03 -3.5193681250e-01 4.3483269751e-01 1.7011978063e-01 -2.5175561810e-01 8.7890941626e-02 -5.1084792234e-01 1.3908738908e-02 2.7475110672e-01 5.3066846350e-02 -1.0883204551e-01 7.9617084098e-02 8.0198090600e-02 -3.0435808079e-01 4.0933294682e-01 1.6640233766e-01 1.3937105978e-01 -5.5233046212e-01 -4.7996157594e-03 4.3745735066e-01 2.8643432182e-01 4.4443253431e-02 -1.9715567269e-01 -2.1406803830e-02 3.7061967034e-01 -1.8855878466e-02 -3.0615396277e-01 3.6609931604e-01 1.1689707278e-01 -1.3816229440e-01 5.3524377002e-02 1.6005774969e-01 9.9783866946e-02 3.7391758681e-02 -2.9194010797e-02 1.3258644000e-01 4.0473114800e-02 5.3318584656e-01 -9.4406876977e-02 -7.8184621816e-02 -2.1594069557e-01 -5.1652257524e-01 -4.2420562942e-04 1.6990794035e-01 1.3506612152e-01 -2.1535088381e-01 -4.8414816162e-02 3.7801618276e-01 1.2468239824e-01 -2.1269858608e-01 5.0442205297e-01 -5.5929811540e-02 -5.6561230965e-01 3.0324087652e-01 1.2477341326e-01 1.1537814117e-01 1.0542695097e-01 1.9611298973e-01 -4.4399788838e-01 -2.6452739152e-01 5.0555561034e-01 -2.1040234676e-01 -5.2889180506e-02 1.2851152760e-01 8.5668796811e-02 1.6080659448e-01 1.7545195561e-01 2.3036883477e-01 -1.0686551847e-01 -2.5201933267e-01 2.8573440392e-01 -2.5690449232e-01 4.2802428069e-01 4.3885152274e-01 1.2725366162e-01 6.6301515873e-02 2.2178460506e-01 2.8532495537e-01 3.2692342724e-01 -5.1020797691e-01 -1.0019720068e-01 1.9076958341e-01 1.6695147184e-01 -1.2962843740e-02 5.5865299365e-01 -3.7384470997e-02 -3.8996078970e-02 -6.3911635810e-02 9.5420484630e-02 -1.8433062706e-01 1.5025739022e-01 -6.8426757002e-03 8.5782506920e-02 -2.0808122108e-01 -1.4594999614e-01 -1.1698509737e-01 1.3149652162e-01 4.7027037021e-02 -1.4834370813e-01 -1.7506848884e-02 -1.8983199221e-01 2.8002515361e-01 -3.1755639675e-01 -2.8782091941e-01 -1.1884738020e-01 