2.5029529695e-01 4.7684406210e-01 4.7684428501e-01 -4.7684406889e-01 2.8230971681e-01 -3.7599356980e-02 -2.1681879879e-01 -7.4148861394e-02 -4.7684403113e-01 3.3056294632e-01 2.8397370698e-01 -8.7778608146e-02 4.7684398503e-01 -4.7684429929e-01 -1.4672568271e+00 5.4464760868e-01 -3.3056244559e-01 -1.4844660297e-01 2.7254160197e-01 4.2509842250e-01 4.2509928612e-01 -4.2509895593e-01 -6.3806524031e-01 1.8086314112e+00 -5.8060695501e-01 3.9340878367e-01 -4.2509842320e-01 -8.7688636290e-02 -8.7595286294e-01 1.1721674648e+00 4.2509864058e-01 -4.2509940927e-01 -1.8641352355e-01 1.8968969650e-01 8.7689637452e-02 2.2006730415e+00 -1.8021956396e+00 8.4283559005e-01 -8.4283519734e-01 5.1864851175e-02 5.7565509433e-02 -5.1228726662e-02 8.1650317752e-02 -8.4283591963e-01 1.6462988905e-01 4.8783073272e-01 8.6730459240e-02 8.4283663665e-01 -8.4283768700e-01 -2.6642282520e-01 2.3217444714e-01 -1.6462848496e-01 -6.4418346843e-02 6.1249209977e-01 -8.4283752325e-01 5.1864476614e-02 5.7566625002e-02 -5.1229268842e-02 8.1650355996e-02 -8.4283662863e-01 1.6462744312e-01 4.8783215364e-01 8.6731752779e-02 8.4283513269e-01 -8.4283805240e-01 -2.6642162651e-01 2.3217624138e-01 -1.6463044867e-01 -6.4421255918e-02 6.1249258681e-01 -5.1863727971e-02 -5.7565004794e-02 5.1230235388e-02 -8.1651664866e-02 8.4283764240e-01 -1.6463124935e-01 -4.8783102022e-01 -8.6732997865e-02 -8.4283795760e-01 8.4283455144e-01 2.6642327476e-01 -2.3217289521e-01 1.6462927116e-01 6.4420752526e-02 -6.1249293145e-01 -4.3771000083e-01 2.9607790108e-02 1.6647926495e+00 -5.1864083696e-02 8.9886657586e-03 -7.1442830938e-01 3.6732707257e-01 5.1863675496e-02 -5.1864270880e-02 -7.6274683089e-01 1.6068420281e+00 -8.9886969753e-03 -1.6294304575e+00 -1.4623811432e+00 -3.5517909559e-01 4.4081851627e-01 -5.7565985768e-02 -2.9717850998e-01 1.5058130083e-01 2.0355609128e+00 5.7564663283e-02 -5.7564492684e-02 3.3155895615e-02 -2.9272456730e-02 2.9717789956e-01 1.1689140571e+00 1.9570423418e-02 2.6947399291e+00 5.1228738087e-02 -1.1270445251e+00 1.0828250609e-01 -1.0441826640e-01 -5.1229747844e-02 5.1229556406e-02 3.6996706921e-01 -6.4452431002e-01 1.1270447475e+00 4.3677556533e-01 7.8396887036e-01 -8.1650205507e-02 -6.3771309594e-01 9.9612668934e-01 9.5595144575e-01 8.1650308501e-02 -8.1650905639e-02 1.7180048022e-01 -4.0133336433e-01 6.3771293307e-01 -4.1267396317e-01 3.4583038919e-01 -1.6462798466e-01 -4.8783128391e-01 -8.6730818493e-02 -8.4283772575e-01 8.4283540443e-01 2.6642339470e-01 -2.3217263062e-01 1.6463133492e-01 6.4420041539e-02 -6.1249156037e-01 9.7406314669e-02 -6.8734230090e-01 1.6462912158e-01 -1.6462986353e-01 -5.0762683000e-01 8.2772487814e-01 -1.7008008203e+00 -6.5173879109e-01 -5.3113748415e-01 2.8825353541e-01 4.8783139735e-01 -4.8783113015e-01 -1.8789894502e-01 1.7059085189e-01 -9.7405788118e-02 1.6042555965e+00 1.4995344433e+00 8.6734117903e-02 -8.6732571430e-02 2.4722521734e-01 -3.8205986959e-01 6.8734225068e-01 8.4275936372e-02 -1.1237456425e+00 -8.4283345739e-01 -2.6642273797e-01 2.3217403514e-01 -1.6463030324e-01 -6.4420937232e-02 6.1249288711e-01 2.6642158022e-01 -2.3217574388e-01 1.6462907655e-01 6.4419847584e-02 -6.1249320762e-01 -1.6113623194e+00 5.0762712632e-01 1.3472099857e-01 -2.1477276440e-02 -8.2772469562e-01 -1.2545190496e-01 -4.6272198586e-02 6.5173848035e-01 5.3113744069e-01 -8.8085004633e-01 2.2994880566e-01 4.3574976487e-01 4.2142043176e-01 4.2141657972e-01 -4.2141750937e-01 2.7754138708e-02 8.3073758404e-02 1.5038572501e-02 1.4057525770e-01 -4.2141833672e-01 8.5650333154e-02 9.8173740389e-02 1.3171680365e-01 4.2141934962e-01 -4.2142099501e-01 -1.6075012042e-01 1.4624046569e-01 -8.5647860831e-02 -3.0049991245e-02 2.2626455466e-01 