1.4792143657e-01 -3.6585080413e-01 -1.9916674049e-01 4.5730425936e-01 3.9618164973e-01 -5.7210634431e-01 3.7285770054e-01 -2.5425357015e-01 3.0615115117e-01 -2.8594532817e-02 -4.5265117139e-01 2.3876134657e-01 -2.6950518860e-02 4.5265117861e-01 6.1920325172e-02 1.7852587721e-01 -1.5022958180e-01 1.3013132801e-01 2.3566870862e-01 -4.4060082908e-01 -3.5938691891e-01 5.2279072451e-01 -1.5203286844e-01 -1.5202140675e-01 2.9845634595e-01 -3.6417609757e-01 3.6466344942e-01 -4.6142315154e-01 -3.9021616355e-01 2.0715160435e-01 -3.9195459600e-01 3.9021580309e-01 -3.2203847529e-03 -8.4837169838e-02 2.3914912703e-01 -1.2537072620e-01 1.5057678536e-01 7.9280627735e-02 -5.9041768660e-01 2.5224103163e-01 -6.8383444616e-03 -1.0767571647e-01 1.6926347769e-01 -1.1900571958e+00 -1.9102534825e-01 2.4391930105e-01 6.5733409052e-02 -2.8136243604e-01 -2.4391907896e-01 8.4880716336e-01 5.1261286615e-02 -3.6543871651e-02 3.9378519474e-01 4.6633574733e-01 -4.2907617469e-01 -1.2382500531e-01 1.5049859700e-01 2.7787255690e-02 -1.0421565444e-01 -3.8108488243e-01 4.0976453479e-02 7.4788627291e-02 1.4570894308e-01 -7.9622921049e-02 -7.4788586104e-02 7.6859394682e-01 4.2783855406e-01 -3.2017771723e-01 -2.7748931303e-01 2.2728328917e-01 -3.0544047438e-02 1.3885726220e-02 1.5949168114e-01 -1.6179080611e-01 1.9937915319e-01 -4.7492384964e-01 -2.6001937137e-01 1.1885079882e-01 1.0961523347e-01 2.6001939784e-01 -3.6285483555e-01 -5.3255537303e-01 7.5685350662e-02 -2.4244196793e-01 1.7422357241e-01 -3.0633576281e-01 -1.7750917900e-01 -5.4848646567e-01 -1.7940975988e-01 -4.3614799871e-01 1.1631353342e-01 -7.6151214074e-01 5.6476099433e-01 -1.1631350389e-01 -9.1985540642e-02 -7.2467069422e-01 5.6798428619e-01 -1.1711999223e-01 3.3236839250e-01 -1.9681209371e-01 2.4184387714e-01 5.1329835591e-02 -4.4795148648e-02 2.2047360699e-01 -1.0307696576e-01 -7.7593515691e-01 -2.2047362239e-01 -4.9849753592e-01 2.1721907898e-01 -8.9459439131e-01 -1.2586109376e+00 -8.2996987358e-02 -4.6769324356e-01 6.1684577155e-02 -3.5143861835e-01 -4.5832096624e-01 7.4313010640e-01 -4.0839179813e-01 4.5832056353e-01 -4.7821757727e-01 2.1941823379e-01 2.9429089138e-01 -2.7693235172e-01 8.7754101876e-02 -1.1312764725e-01 2.9052457217e-01 5.4005632100e-01 -2.8528319754e-01 -4.0873897927e-02 -5.4005666876e-01 -2.8319723907e-01 1.5660394832e-01 3.3165509640e-01 -5.8836000158e-01 -1.9569677406e-01 -3.0297898853e-01 -1.9958725416e-01 -9.7001522248e-02 3.6994739623e-01 1.9958758973e-01 -9.3302595439e-01 -1.2787367096e-01 -9.5968774767e-03 -4.3947492426e-01 -3.8458583901e-01 4.4653373049e-01 -2.5469884137e-01 -2.0771621703e-01 -4.4653386477e-01 1.7347377152e-01 5.0508796771e-01 -1.1235253684e-01 3.2689102126e-01 -2.2895894805e-01 -3.2522182512e-01 2.8534304531e-01 -5.3679889875e-01 -8.7371850228e-02 -1.2020952455e-01 -3.2358974649e-01 2.6212803350e-02 1.0824534783e-01 -5.9381406750e-01 3.2522181004e-01 5.0564462992e-01 4.2760531783e-01 2.5087906610e-01 -3.6280251154e-01 -3.4024401845e-01 -2.8534313468e-01 1.0030251169e+00 7.9374246505e-02 2.1035804356e-01 -4.1925634457e-01 -2.9563316342e-01 8.7371745354e-02 1.2020969756e-01 3.2358987959e-01 -2.6212923022e-02 -1.0824528314e-01 8.7971427886e-02 3.4026897932e-01 -1.4271236357e-01 -2.1074946344e-01 -2.2142089505e-01 7.2506908607e-01 -3.8983071378e-01 8.3698614341e-01 -1.0290206789e+00 3.4084049717e-01 -1.1937340929e-01 -1.4034707890e-01 5.1363476260e-02 9.2501344112e-02 -2.7100155380e-02 5.7070390605e-02 1.6924409156e-01 -1.9031581912e-01 1.2530981380e-01 -6.8359559386e-03 1.2436082727e-01 2.4025167954e-01 -9.9641615990e-02 1.6904643662e-01 -2.4025183051e-01 -2.2752481430e-01 6.4112015907e-01 -2.0515691263e-01 -1.0150590878e-01 5.3649160350e-01 