-3.3086519724e-02 4.7103546357e-03 -3.4110080778e-02 -6.5342439638e-03 8.9221661540e-03 3.6463848090e-02 -2.3859470410e-03 -2.8273924741e-02 2.2798441861e-02 6.3999714772e-03 -7.8170270736e-03 -6.2162414906e-02 -1.1944150728e-02 -5.8841943628e-03 1.0205109366e-02 -8.9399848655e-03 -1.1149736590e-02 8.2443690260e-03 2.7774137281e-02 2.7722476998e-02 -1.6402239186e-02 -1.5178179317e-02 -4.0960289950e-02 -4.0919223046e-02 -1.2581869264e-02 -8.5862498054e-03 4.2384687437e-03 3.1756760999e-02 2.2516185726e-02 1.0735245391e-03 -8.7323968105e-04 1.6691044674e-02 -2.7351316142e-02 -3.1531099894e-05 1.2844783241e-03 -2.8181543366e-02 4.5484224499e-02 -3.3259861220e-02 4.7123103950e-02 1.3974325218e-02 4.1567186807e-02 2.8778550960e-02 1.6265524236e-02 -1.4810933641e-02 5.1689955455e-03 1.8384316535e-02 -2.6056542317e-02 -2.0969636818e-02 -3.8766961943e-03 -9.6715099834e-03 -1.0050546333e-02 2.5678835727e-02 -3.1352602482e-02 -4.9672903934e-03 -9.4284034170e-03 -1.2106560789e-02 2.1456897921e-02 -1.7825146421e-02 2.7453619348e-02 1.0552946990e-02 2.7047073715e-03 1.3648898940e-03 2.6649588311e-02 1.8260237520e-02 3.1290688419e-02 -3.2720303396e-03 1.6525093915e-03 -5.4118454459e-02 -5.5277268388e-03 -3.0368231570e-02 8.9436643388e-03 -1.0504023195e-03 8.9863693336e-03 1.3348182416e-02 -1.0899736027e-02 9.7828121126e-03 3.1537690006e-02 2.0260585510e-02 6.9271875663e-03 -1.9105798534e-02 -2.5529442088e-02 4.6221191105e-03 -1.0378438277e-02 4.8148510191e-02 1.4559056795e-02 1.4248797046e-02 2.7774893671e-02 -3.0003689262e-02 5.2368143476e-02 3.4767465917e-02 3.9892341740e-02 7.8053290550e-03 -5.2002071805e-02 5.7603874462e-03 -7.9138300310e-03 3.3431771704e-02 -5.0543876556e-02 2.0048303919e-02 -5.8631755240e-03 -4.2561059776e-02 -1.9393343445e-02 9.5509272585e-03 -1.7234216961e-02 2.6587488562e-02 -5.2601818661e-03 1.2799827495e-02 -2.3516105413e-04 -1.8643879662e-03 -2.9264513859e-02 2.5877541258e-02 1.3319450745e-03 3.8538471783e-02 -4.7015865733e-02 6.2292387859e-03 9.9677170472e-03 -7.9935402634e-03 -1.2622955386e-02 -2.1359339740e-03 1.5794787578e-02 -7.5634506064e-02 2.3637714502e-02 2.4635645242e-02 -3.2069268293e-02 -5.7670649152e-02 -3.6403095185e-02 5.9124018027e-03 1.0013676056e-02 -2.6524509949e-02 7.8613606017e-03 2.7472796675e-02 2.8226018807e-02 8.5572901420e-03 3.7374352689e-02 -5.1386908946e-02 9.8266318131e-03 1.1627409798e-02 1.3277585756e-02 2.6411976173e-02 2.9111425817e-02 2.4291541819e-02 -4.1724388872e-03 8.0695751520e-03 -4.7895312389e-02 -1.6067423806e-02 2.3505826652e-02 1.0395583862e-02 -3.3062724478e-03 -4.3386220873e-02 1.3559462009e-03 1.3122430680e-03 -5.2780900917e-03 -3.7002741406e-02 -1.0611149326e-02 3.0987911895e-02 -1.2099272528e-02 3.7904006125e-02 4.2062826334e-02 3.7194928117e-02 -3.8237213968e-03 -9.0975811805e-03 2.5911207923e-02 -4.0078756312e-03 -1.1520532978e-03 -2.1053067879e-02 4.6199298886e-02 -2.2819474427e-02 -4.6859041936e-02 -1.7241596894e-03 -6.7972817116e-02 -4.3483701078e-02 -2.0603053275e-02 3.6604818683e-02 4.7674390368e-02 -6.1746297528e-03 9.0671431161e-03 -2.1237114135e-02 -1.5071593952e-02 2.5692500066e-02 -4.7647132866e-02 1.1595837746e-02 -3.2800449898e-04 -4.0181793177e-02 -4.6270747966e-02 -3.3801026752e-02 1.8255018319e-02 1.3125460372e-02 -3.4283813212e-02 -1.0236736625e-02 -1.9933632334e-02 -4.3532145738e-03 3.2719428209e-03 -5.0895248461e-03 8.1526947527e-04 -1.7623563069e-02 -2.9697544121e-02 -1.2419931801e-02 2.3628548140e-02 -1.2907939598e-02 -2.3327451239e-03 -1.1498277219e-02 -5.9742466982e-02 -1.7236455155e-02 2.8912136222e-03 -4.0747219752e-03 -1.3592297991e-02 9.9151718745e-03 3.0007450295e-02 8.5827998626e-03 -5.8937702623e-03 -9.3376363636e-03 