-6.5765613901e-03 -5.3945155164e-01 4.5297609892e-01 -5.3945147768e-01 3.3525796943e-02 -6.8367179470e-02 -5.3945158262e-01 -5.3945150411e-01 5.3945143683e-01 -4.8127765267e-01 5.3945152431e-01 -5.3945146581e-01 -5.3945161175e-01 -2.2805841105e-01 8.6492160858e-02 -5.3945152461e-01 5.3945147818e-01 5.3945153962e-01 5.3945154426e-01 6.5765427024e-03 1.8032690629e+00 6.5765319263e-03 -5.7233174100e-02 2.7134331763e+00 6.5761956081e-03 6.5768805965e-03 -6.5762639454e-03 -1.1960519690e+00 -6.5765252507e-03 6.5766462351e-03 6.5765075953e-03 1.6183890614e+00 1.1311095610e+00 6.5762718106e-03 -6.5755852483e-03 -6.5758207124e-03 -6.5758286800e-03 -4.5297596967e-01 5.3945166460e-01 -3.3525820970e-02 6.8367067009e-02 5.3945154616e-01 5.3945151495e-01 -5.3945152725e-01 4.8127773701e-01 -5.3945158798e-01 5.3945162774e-01 5.3945161533e-01 2.2805822551e-01 -8.6492387528e-02 5.3945165721e-01 -5.3945161206e-01 -5.3945153804e-01 -5.3945167840e-01 -4.5297645779e-01 3.5499907770e-01 1.8666880454e-01 -4.5297686836e-01 -4.5297726229e-01 4.5297756992e-01 8.3063265724e-01 4.5297614276e-01 -4.5297665470e-01 -4.5297666546e-01 -9.3909797647e-02 -1.4609647597e+00 -4.5297658828e-01 4.5297645195e-01 4.5297633977e-01 4.5297618167e-01 -3.3525831525e-02 6.8367101583e-02 5.3945155773e-01 5.3945145047e-01 -5.3945152981e-01 4.8127755930e-01 -5.3945159910e-01 5.3945154688e-01 5.3945154394e-01 2.2805833022e-01 -8.6492321689e-02 5.3945152965e-01 -5.3945158018e-01 -5.3945163643e-01 -5.3945155403e-01 -1.5931114374e+00 -3.3525752133e-02 -3.3525532065e-02 3.3525655008e-02 1.0215732929e+00 3.3525722015e-02 -3.3525615091e-02 -3.3525778803e-02 1.2120713754e+00 8.8595155644e-02 -3.3525754798e-02 3.3525532672e-02 3.3525894670e-02 3.3526051964e-02 6.8367365122e-02 6.8367269186e-02 -6.8367166021e-02 -1.4028763092e-01 -6.8367113919e-02 6.8367247874e-02 6.8367372934e-02 2.3377361276e+00 -1.8356390024e+00 6.8367127751e-02 -6.8367289096e-02 -6.8367185264e-02 -6.8367098391e-02 5.3945156077e-01 -5.3945148448e-01 4.8127757518e-01 -5.3945151252e-01 5.3945147802e-01 5.3945148640e-01 2.2805854112e-01 -8.6492370638e-02 5.3945164552e-01 -5.3945155942e-01 -5.3945161473e-01 -5.3945160797e-01 -5.3945149064e-01 4.8127751320e-01 -5.3945165008e-01 5.3945160559e-01 5.3945154539e-01 2.2805854767e-01 -8.6492115514e-02 5.3945135552e-01 -5.3945126174e-01 -5.3945145857e-01 -5.3945152696e-01 -4.8127746202e-01 5.3945154937e-01 -5.3945158847e-01 -5.3945155087e-01 -2.2805891195e-01 8.6492301072e-02 -5.3945151263e-01 5.3945145587e-01 5.3945150439e-01 5.3945153143e-01 -4.8127764838e-01 4.8127770436e-01 4.8127759101e-01 2.2978585120e-02 8.5309738509e-01 4.8127759840e-01 -4.8127761482e-01 -4.8127767837e-01 -4.8127767695e-01 -5.3945147002e-01 -5.3945157786e-01 -2.2805830989e-01 8.6492268083e-02 -5.3945172561e-01 5.3945152128e-01 5.3945154933e-01 5.3945140913e-01 5.3945169879e-01 2.2805843832e-01 -8.6492101043e-02 5.3945147912e-01 -5.3945157043e-01 -5.3945158625e-01 -5.3945158820e-01 2.2805846885e-01 -8.6492002599e-02 5.3945147944e-01 -5.3945164866e-01 -5.3945154589e-01 -5.3945157691e-01 -2.6596631287e+00 2.2805842059e-01 -2.2805868637e-01 -2.2805843144e-01 -2.2805857794e-01 -8.6492546421e-02 8.6492763253e-02 8.6492543544e-02 8.6492422999e-02 -5.3945155762e-01 -5.3945161904e-01 -5.3945156876e-01 5.3945158716e-01 5.3945142346e-01 5.3945159166e-01 -2.3457279302e-01 1.7052888133e-01 2.3457182262e-01 1.2180079840e+00 2.3457201311e-01 -4.2011264056e-01 6.9058270556e-02 2.3457174518e-01 2.3457242182e-01 -2.3457176521e-01 -5.3190151037e-01 -2.3457213553e-01 2.3457167239e-01 2.3457157639e-01 4.6683105417e-01 1.1471732077e+00 2.3457188782e-01 -2.3457230681e-01 -2.3457163569e-01 -2.3457197850e-01 