-2.0613490345e-01 1.4257402943e-01 2.7062049305e-01 1.9937919527e-01 -5.6597306786e-02 1.5941731609e-01 -1.5644021848e-01 -7.5580169554e-04 -4.7901755352e-01 4.9457654364e-01 1.8658517569e-01 -1.1832221477e-01 -2.1026637541e-01 7.5913410529e-02 -5.6102410422e-02 -2.3467383264e-01 2.4271202993e-01 2.3749772518e-01 2.5551840410e-01 -1.9624919610e-01 1.0522754313e-01 -2.3547990986e-02 1.7454059156e-01 7.3210060060e-02 6.1626917843e-02 -1.7632756099e-01 -3.7493782878e-01 -1.1919276113e-01 -2.5501334957e-01 -1.1584954042e-01 2.0923056536e-01 -2.9439958715e-01 -1.7294634069e-01 4.3497733977e-01 1.6740175106e-01 5.7842047125e-01 2.8268714188e-01 -2.5475665958e-02 2.4887646438e-02 8.8134323027e-02 3.3759097529e-01 2.8455607527e-02 1.7098958563e-01 2.7181236978e-01 -2.4526042907e-01 -8.5593720633e-02 2.8312469226e-01 7.0127741125e-02 -2.9465792933e-01 8.1049253474e-02 -2.0401806874e-01 3.4325262356e-01 1.3704809405e-01 2.4405785943e-02 -9.2738835896e-02 -9.4007753077e-03 -1.8004311412e-02 5.1446615775e-01 2.1581465973e-01 2.3021539852e-02 -4.4178686740e-01 -1.4466085546e-01 -1.3070043050e-01 7.0061743509e-02 -1.8961530588e-02 3.5154901503e-01 4.6104139847e-01 5.3939094495e-02 -2.7971045697e-01 -1.7249775744e-01 2.4716187359e-01 -3.0995776627e-01 -2.9790284125e-01 1.3947368443e-01 -2.3751055247e-01 -3.2430835266e-01 2.1631672001e-01 2.2914678505e-03 1.2273155675e-02 4.4407930856e-01 -3.2194878978e-01 5.4131470368e-01 -1.5166454575e-01 -1.4272297383e-01 -2.7993266638e-01 1.0075118149e-01 2.9205214144e-01 1.8980143668e-01 -5.5429611954e-02 -6.7230849000e-02 -2.8047044307e-01 1.4354506051e-01 1.1464250716e-01 -2.2926937560e-01 3.0749260199e-01 -5.3787897691e-03 -5.4455330555e-01 1.1189490517e-01 1.9123792187e-01 9.0733209842e-02 2.9259229401e-01 -8.8836252584e-02 5.2423064212e-01 -1.5363027401e-02 1.7679041355e-01 3.4636703276e-01 -2.4411842458e-01 2.7576214709e-01 -6.6602791863e-03 -4.1748028343e-01 2.7137882024e-01 1.4475097659e-01 3.3080173913e-01 -3.3446437919e-02 -1.3308346747e-01 -4.1180333273e-01 8.1826432760e-02 2.9799949217e-01 -6.6911360322e-02 5.3319838112e-01 2.4706085688e-01 -4.5160621724e-02 7.8244711688e-02 -6.0027288872e-02 7.6025549158e-03 -1.9821930103e-01 -1.4983792621e-01 4.7319512694e-02 3.6855196472e-01 -3.2168485124e-01 3.7111445800e-01 -4.3945441706e-01 1.7029608401e-01 -3.1581302952e-01 -1.2565373375e-01 9.1923171552e-02 -5.8953435512e-02 3.7939408928e-01 -1.4048481627e-01 -8.1611546930e-02 -1.5185697140e-01 -4.4040338225e-01 -3.3450674379e-01 -2.6502809315e-01 -3.9646211979e-01 2.6784000003e-01 8.4536557001e-02 -1.7413224906e-01 -2.8666289104e-02 1.6592534248e-01 -5.0999317143e-01 -1.2056078230e-01 1.4100804827e-02 -7.1481038359e-02 -1.1456555339e-01 -4.1228273016e-01 -4.2029789456e-02 -1.8947984344e-01 -1.3577894462e-01 1.4936839748e-01 -2.4373262866e-01 -3.8768901751e-01 1.4919011185e-01 8.8905648875e-02 9.2165604227e-02 -3.7439311029e-01 -3.0895238027e-02 3.0357680361e-01 4.5505804809e-02 1.9136639510e-01 1.8617991112e-01 -4.0495335999e-02 -1.6563413643e-01 -1.9935377254e-01 4.3043537438e-01 -1.2995734511e-01 2.7214027137e-01 -2.9256444754e-01 -4.2622258568e-01 -1.4039224222e-01 2.1186659300e-01 -2.0629354246e-01 5.0215778838e-02 3.5860419909e-02 -2.8964509974e-01 3.3619272889e-02 2.8684919744e-01 -3.1975496413e-01 -2.2293693828e-02 -4.7483669654e-02 5.6642641456e-01 -9.2756648130e-02 8.2818088427e-02 2.8934066891e-01 1.3497518262e-01 -1.9243891848e-01 1.3752167819e-01 -1.5716178259e-01 5.1750908897e-02 -2.4967267726e-01 3.1310686344e-01 2.3014226038e-02 -1.3506282423e-01 -1.8261979725e-01 1.5890516073e-03 -1.1051835487e-02 4.3660418072e-02 -8.6710446842e-02 1.4529198924e-01 1.1495125121e-01 