-1.3796565876e-02 1.2923328897e-02 1.2454063611e-02 -4.3523760539e-03 1.1568537411e-02 -5.0324649148e-03 -9.5242435769e-03 1.4029638393e-02 -9.2701278192e-03 -3.3271630327e-03 8.9799235694e-03 -4.3916233283e-04 6.8291805106e-04 -1.3245338046e-03 1.9679581317e-02 -1.2985161786e-03 2.0383593243e-03 -2.1117717644e-03 1.0756975170e-02 -3.4459937334e-03 -5.5315825603e-03 2.4669181886e-03 -6.7797355905e-03 -6.9799360747e-03 3.6311006288e-04 1.4378583241e-04 -2.4632015206e-03 2.9948811463e-03 -8.6931618254e-03 3.0414429005e-04 -1.2209615550e-03 -7.8558044283e-03 -7.5665241862e-03 7.9696735154e-03 -9.1583563795e-03 7.0583006102e-03 1.7657121509e-02 -4.8921225386e-03 -8.1757266384e-03 1.2346368831e-03 -5.9059594518e-03 -7.0320111738e-04 3.0817343752e-03 -1.0237842970e-03 4.4572329060e-03 3.9310954921e-03 -1.2936788581e-03 2.4767721071e-03 2.4882438501e-03 -4.8876720903e-03 7.2162606872e-03 5.8699951117e-03 1.0480248766e-02 -2.3071376840e-03 -3.0346157090e-03 1.2108765031e-03 -3.6224755484e-03 -1.3193058524e-03 1.0297851103e-02 3.7908142138e-03 9.7018701578e-03 1.0084223263e-02 8.0447948842e-03 1.9721670580e-03 -4.7637970384e-03 4.5199521655e-03 -4.3561647320e-03 -3.5454097790e-03 1.1979420994e-03 9.5992640070e-06 7.0634668309e-03 -1.1792853436e-02 2.3478775282e-03 -2.5545981809e-02 9.1756241551e-03 -9.7979127802e-04 -1.9457972444e-03 -8.9149746857e-03 -3.3208789347e-03 1.4495552343e-03 1.2334765073e-02 7.8470751426e-03 1.1518357788e-02 -6.7417567722e-03 -5.6024851980e-03 2.3441530841e-02 -4.2436518292e-03 -4.4660159824e-03 -2.5509620987e-03 -3.1793585773e-03 -7.3009257638e-03 1.1572237298e-02 -3.7135231819e-03 -1.0564253083e-02 1.7332306431e-02 5.2263410212e-03 2.0887402018e-03 4.5631620793e-03 -3.6022809933e-03 -7.3231810034e-03 -7.1901203209e-03 3.1420599476e-04 -1.7409986099e-02 6.6958402543e-03 1.8334269181e-02 -1.2943466409e-03 6.0578658873e-03 -3.8879971077e-03 1.3385964610e-03 -7.2124773546e-03 4.8320154327e-03 3.4633297623e-03 -4.2974786504e-03 -6.7081538116e-03 -1.4826714621e-02 1.7861754147e-02 4.6144253514e-03 9.2586596202e-04 -8.9633706980e-03 -3.7332723288e-03 -1.9643578344e-02 2.0746546263e-05 -1.8482075669e-02 -8.4901700364e-03 1.8617327734e-04 5.3987823344e-03 -9.6676331981e-03 7.1008813211e-03 -1.3320016155e-03 5.9929645750e-03 -7.9276975582e-03 -3.3403939667e-03 2.6608207343e-03 4.2455124505e-03 9.5797259093e-04 3.1192728922e-03 -1.3755108797e-02 -4.1873809599e-03 -7.9738043195e-03 1.2123304858e-03 3.7019332321e-03 5.5109056253e-03 2.1230901446e-03 4.3579709777e-03 -1.0239139679e-02 -1.4182360314e-02 -5.4132897685e-03 5.1674607502e-03 -6.8112607994e-03 -1.1398565578e-02 -4.3191761053e-04 -8.0848034257e-03 1.6825191362e-02 -7.0404034310e-03 1.6214538489e-02 2.8152304939e-03 7.9560705788e-03 8.0664677758e-03 -1.6805951930e-02 -2.5936842452e-03 -8.4850540813e-03 -1.3211295457e-03 1.5181460983e-02 -3.5335933642e-03 -3.8514088254e-03 1.5421062887e-03 7.3644237706e-03 4.9609315874e-03 5.6704177553e-03 -4.6613115674e-03 9.5550553692e-03 -2.4079073090e-03 1.1743533304e-03 -5.6663376783e-03 1.1573294987e-02 -2.3041987837e-03 -1.6431105585e-02 8.2560016926e-03 -8.2370195675e-03 -4.5682563926e-03 9.2778676071e-03 1.0068510518e-02 -1.0130623378e-02 -4.9176860642e-03 1.0532374375e-02 -1.7493194859e-03 6.9239346168e-03 -4.4412676268e-03 -8.1127735650e-03 -1.5455068407e-02 -4.6446218759e-03 4.5248934442e-03 3.0996711786e-03 -1.2787225171e-02 4.8155846415e-03 6.1649651828e-03 -2.3878416463e-03 -5.6096463730e-03 -1.1917463848e-03 -1.6785300370e-03 8.9419920023e-03 -1.9241047230e-02 -6.7014649435e-04 -5.4585213958e-03 -2.9905497309e-04 -1.5355420226e-03 4.9739310497e-03 -1.3067017218e-03 4.4728603697e-03 7.1393915299e-04 