-2.1068720620e-01 3.2995519967e-01 4.3448451135e-03 -7.9304094067e-02 4.9596655619e-02 -2.7871642058e-01 -1.1602743903e-02 -1.1428363480e-01 5.2395301772e-01 1.0910133652e-02 3.1257470086e-01 2.1949551981e-01 -3.7963517511e-01 -1.2534532261e-01 8.2078523369e-01 2.2905332441e-01 2.3848728541e-02 -3.9057023581e-01 -1.9601113615e-01 -2.9439815648e-02 3.0791421219e-01 3.2893019244e-01 4.1535540570e-01 -4.1573519760e-02 7.3588558739e-02 3.1804609653e-01 2.0536804579e-02 2.5472168445e-01 -5.4571075211e-03 -1.1203409414e-01 -7.2719284380e-02 8.9636596663e-02 -2.0141411618e-01 4.3160264871e-01 1.8266688006e-01 5.7888428585e-01 6.3589609723e-01 9.1198987612e-02 4.4219431815e-02 -3.2148416278e-01 -2.1931406907e-01 4.5574001186e-01 -4.2205807311e-01 -3.4337411031e-01 -2.7374049653e-01 5.0754547492e-01 1.5602768814e-02 -5.3157787324e-01 -9.1264262412e-02 -1.4500516212e-02 -5.5078645272e-02 3.4300931597e-02 1.1425786928e-01 4.5239187082e-01 5.7788979046e-01 2.2168686227e-01 -1.3864671230e-01 -2.7757049307e-04 -2.5452284501e-02 -9.5971252519e-02 -2.3507420748e-01 -1.6537390995e-02 -7.6749336082e-02 -4.5873048316e-01 5.9483088033e-01 -8.8489220092e-02 6.1964855897e-01 5.8841523011e-02 -2.1340997843e-01 -2.0260008297e-01 2.9483434014e-01 -1.7445256901e-01 1.0620555148e-01 -2.8751809775e-02 -7.8422488903e-02 3.9144229488e-01 2.8694546438e-01 1.3145044423e-01 5.1885263925e-03 4.9598547327e-01 -5.2935453241e-01 2.9648356333e-01 3.2124138945e-01 -1.0134395703e-01 -1.2005091623e-01 1.9174898188e-01 5.0109075932e-01 3.4816092625e-01 -1.1862823453e-01 -8.7135601749e-02 3.2929091069e-02 2.2557970911e-01 -1.7127220338e-01 3.6695812990e-01 -3.0803821345e-01 3.4887577856e-01 -1.3334842516e-02 1.0229907894e-01 2.6849691668e-01 -8.0997788047e-02 1.6265467525e-01 5.2575643649e-01 -2.2059890337e-01 -3.8652786161e-01 6.1349444938e-01 3.5302672573e-02 1.9433610600e-01 1.9094971299e-01 -5.3816506055e-02 3.8791194912e-01 -8.0660655335e-02 3.9443326220e-01 -7.0604174069e-02 -3.8216890638e-01 6.3718878662e-02 -5.0180865287e-01 -5.4732505143e-02 -2.7260037058e-02 -1.5162108054e-01 1.7646982295e-01 -8.7031794109e-03 -1.6676493914e-01 2.2781106097e-01 4.9272550649e-01 -3.9049008073e-01 -1.2642139189e-01 1.6619394299e-02 2.9205214999e-01 -1.5909727746e-01 2.3992093053e-01 1.0151753269e-02 3.2529129118e-01 1.6813559847e-01 1.3394723087e-01 1.6408139109e-01 2.6499798586e-01 6.1289235517e-01 3.7321535592e-01 2.4872835123e-01 2.1619903181e-01 3.2591064601e-01 8.7361060225e-02 4.4589290461e-01 -2.9367180645e-01 3.0574593024e-01 2.3518127790e-01 -1.5131232611e-01 -2.3785426931e-02 -1.4727092418e-01 -2.2967311646e-01 -3.1301548735e-02 4.7947377211e-01 3.9862994502e-01 4.6349154757e-01 1.2897525679e-01 -8.6973998440e-02 2.5335270444e-01 3.0585186497e-01 2.3199404872e-02 -7.4197564416e-02 -4.4052333774e-01 8.1652982013e-01 5.2102728196e-01 -1.1219684743e-01 2.4056334858e-01 8.0822717836e-03 2.6048172647e-01 -3.0749413024e-02 5.7972299320e-02 -2.3711165179e-01 4.1609690093e-01 -2.2090145327e-01 5.3529748713e-02 2.0404216886e-01 -5.9383596869e-02 4.4967917085e-02 8.8122128388e-01 -1.8956970819e-01 -1.3456912549e-01 9.1645160173e-02 3.9742555818e-02 1.8430720762e-01 2.1795104576e-02 1.5492969269e-01 -1.8054925579e-01 4.4907054368e-02 -8.4468933556e-02 3.8275073177e-02 -1.1135858282e-01 1.9254985602e-01 -1.0627488237e-01 -1.3649185339e-01 -1.1841125883e-01 -3.3346282354e-01 -8.3967980671e-02 -1.7818788001e-01 -1.1797073496e-01 3.2994949148e-01 1.4814461575e-01 4.0685898653e-02 6.8671757112e-02 -1.2213406632e-01 2.2468125745e-01 5.3805347305e-01 -2.4896265099e-01 -1.5244333470e-01 -2.7143496103e-01 1.4714740219e-01 7.1713973276e-02 -1.5258675396e-01 