-3.6396773488e-01 3.6396782645e-01 -2.4836466368e-01 2.2787765254e-01 3.0178824716e-02 -1.5786074191e-02 2.2164068331e-01 2.0355445330e-01 -3.6396794711e-01 9.9124753876e-02 -3.6396782204e-01 -2.3636080518e-01 1.6479801784e-01 2.5527129828e-01 -2.0163008814e-02 -2.8244856022e-01 1.7440954259e-01 -3.6295087419e-02 2.3644305385e-01 -3.6396796795e-01 2.4836463988e-01 -2.2787775479e-01 -3.0178825965e-02 1.5786126669e-02 -2.2164076457e-01 -2.0355445943e-01 3.6396782433e-01 -9.9124754570e-02 3.6396787827e-01 2.3636072575e-01 -1.6479805570e-01 -2.5527129478e-01 2.0163014403e-02 2.8244845507e-01 -1.7440948773e-01 3.6295077916e-02 -2.3644304271e-01 -2.4836467550e-01 2.2787764415e-01 3.0178831116e-02 -1.5786076104e-02 2.2164062780e-01 2.0355448538e-01 -3.6396769768e-01 9.9124738195e-02 -3.6396794663e-01 -2.3636077999e-01 1.6479805135e-01 2.5527131237e-01 -2.0163028891e-02 -2.8244845611e-01 1.7440947291e-01 -3.6295069767e-02 2.3644304543e-01 -5.4291530838e-02 5.5684481244e-02 -2.1077457865e-01 -7.3786284494e-02 -5.6027495562e-02 2.4836464864e-01 -4.0859925004e-01 2.4836466430e-01 8.4434426264e-02 7.3175906333e-02 -1.2409614983e-01 1.0988370329e-01 1.4042724317e-01 -4.0813595267e-02 -1.2623374572e-01 -6.9035523219e-02 -1.0205373734e-01 2.4076176570e-01 -2.6531493056e-02 4.9795045228e-04 -2.2787773237e-01 8.2915058447e-02 -2.2787766094e-01 -2.6949237457e-01 1.2249404792e-01 8.8288566473e-02 -2.5410174765e-01 -1.1707717914e-01 2.5666487882e-01 3.4066509244e-02 6.2338877894e-02 6.3274687662e-01 3.3971916171e-01 -1.5282631382e-02 -3.0178821266e-02 7.1727464839e-01 -3.0178818300e-02 1.5429777484e-01 -4.1309376543e-01 -9.1072005255e-02 -3.3439719084e-01 1.6658596331e-01 1.2082371029e-01 -9.7781344075e-02 2.7139658325e-01 5.4412534596e-01 3.4571296932e-02 1.5786085359e-02 2.4907881898e-01 1.5786088917e-02 -9.7203962744e-03 -1.7644573580e-01 -2.3926168467e-02 -9.9412032287e-02 1.3378301628e-01 4.3797805988e-01 6.5416035180e-01 3.1759125313e-01 3.4344235519e-01 -2.2164071049e-01 -1.7315012319e-01 -2.2164070190e-01 -9.7831079157e-02 4.5716054110e-02 2.1739647094e-01 -1.7080868628e-01 -1.3586769449e-01 4.2183230782e-01 -2.7565024114e-01 2.0349916680e-01 -2.0355447103e-01 -2.1548433876e-01 -2.0355445522e-01 -4.4947665035e-02 -1.3770046133e-01 2.6171996159e-01 4.7351696409e-01 -1.0084469672e-01 3.7127389602e-01 -1.0100740092e-01 2.5063105600e-01 -9.9124748068e-02 3.6396781103e-01 2.3636070097e-01 -1.6479806462e-01 -2.5527135027e-01 2.0163010071e-02 2.8244860702e-01 -1.7440949298e-01 3.6295092727e-02 -2.3644302847e-01 -9.9124766351e-02 -2.9814925050e-02 9.4880478037e-02 -5.8317375881e-02 2.4567677864e-01 1.1762164540e-01 -1.7691990636e-01 4.6323824636e-01 2.2321187450e-01 2.3636073293e-01 -1.6479804811e-01 -2.5527121887e-01 2.0163018034e-02 2.8244847353e-01 -1.7440949629e-01 3.6295078458e-02 -2.3644309674e-01 -6.9272306569e-01 -1.3458076992e-01 -2.1331860829e-01 7.8650016531e-02 -2.8763355466e-01 -2.8192035926e-01 -1.0735801438e-01 4.5391773696e-02 8.9606862273e-01 -3.8060133043e-01 1.9257946301e-01 -1.7336311520e-02 2.0636720508e-02 -2.1130845331e-01 -1.6107551604e-01 2.0867681632e-01 -2.2424923874e-01 3.7101782854e-01 5.0402930906e-02 -3.8951389902e-02 9.6245126009e-01 1.5650887313e-01 -8.1544511797e-02 -5.2417057616e-03 -1.5633832630e-01 -9.5539871815e-02 1.9108653288e-01 5.8323040870e-02 -1.2919680114e-01 1.2919681199e-01 -1.2919688530e-01 -4.2077123815e-02 -3.0498124836e-01 -1.4388573237e-01 -2.6966518571e-01 -4.3250924075e-01 -1.7781163304e-01 1.2919679496e-01 1.7816464858e-01 1.2919686464e-01 9.6956293814e-02 -3.2180855069e-02 -1.0220770543e-01 1.6240532291e-01 2.6976477357e-02 -3.8692872939e-01 1.5401254569e-01 -8.6940536348e-02 