-5.1285904104e-01 2.3550126086e-01 3.0514349374e-01 -2.8524163755e-03 2.5981109507e-01 1.8777435516e-01 -1.2654274922e-01 -9.9258883583e-02 -4.2475769837e-02 -1.2971580171e-01 1.1748954375e-01 6.1144884159e-02 -6.0168605026e-01 4.4680129018e-02 7.7888015166e-02 1.1870096559e-01 1.3326800095e-01 -3.6110107860e-01 -2.1984649656e-01 1.4147406602e-01 -3.0246990809e-01 -3.3257210186e-01 -2.7866676065e-01 -5.3500122872e-01 -3.0749987289e-01 2.7754560918e-01 -1.0379184241e-01 1.8892024402e-01 2.1878398545e-01 -1.2852804590e-01 -1.4067956182e-01 -3.2042214531e-01 1.8448863608e-02 4.9557712698e-01 -5.0617126504e-02 3.5133931849e-01 2.8242027499e-01 5.1499190922e-02 1.1486448021e-01 1.2065885645e-01 -4.5144756926e-01 1.3607315342e-01 9.8642591173e-01 -3.6516736463e-02 1.5456590280e-01 2.4372928811e-01 -3.8612372916e-01 1.7239356552e-01 5.0610496959e-01 -1.3965323789e-01 3.2293068322e-01 -4.9905672768e-02 -3.8015220545e-02 1.3429974937e-01 -1.0825185150e-01 5.3368030957e-01 7.9396928766e-02 4.6267909890e-01 -5.1101087221e-01 3.9863930900e-01 -2.8093313789e-01 2.2279713462e-01 -2.5768852279e-01 -3.7092103098e-01 2.8734661472e-01 -3.7801755952e-01 3.2409646726e-01 -3.2034252836e-01 -2.1876439188e-01 -1.0089157688e-01 2.1592834591e-01 3.0790025655e-01 2.6709388264e-01 2.7757985743e-01 -3.3040686994e-01 3.5426006110e-01 -7.5203679082e-01 1.1089176613e-01 -1.4929263890e-01 2.2013734862e-01 -1.0441404464e-01 -3.6243835380e-01 1.5233297244e-01 -3.0999087060e-01 -2.4600460580e-01 3.2739080347e-01 3.9791581399e-01 1.3461701079e-01 3.0136616302e-01 1.1364536388e-01 -1.7160166279e-01 2.4949858012e-01 2.7434716454e-01 4.2084357358e-01 1.8340832006e-01 5.7485508869e-02 -1.3526114743e-02 -4.6818931340e-01 -3.9231909085e-01 3.3097727243e-01 5.2254028491e-01 -1.6092643285e-01 1.3944320775e-01 -2.2074480284e-01 1.7870399262e-01 -1.0460709647e-01 3.8346800311e-01 2.5764823258e-01 -6.6180799428e-02 5.0600184267e-03 -4.1026657533e-01 -3.3355955884e-01 2.5055058918e-01 1.8653897497e-01 1.3359881916e-01 -9.5810919282e-02 -1.3898196616e-01 5.8725239739e-01 1.0455875112e-01 -1.0143061950e-01 4.0317758975e-02 -6.3205847651e-02 -1.8121788125e-01 -1.1798139441e-01 2.0154646591e-01 -5.1451788689e-04 5.2543178497e-01 4.5471477976e-01 7.3697038534e-01 -2.3656732992e-01 2.2835919545e-01 -3.3539024534e-01 -7.5866476022e-02 -1.4123476900e-02 -2.8547422590e-01 -3.2063303583e-01 5.0822342549e-01 6.6848876660e-01 -2.7883398186e-01 -1.5676604419e-01 1.9486839575e-02 -8.1561288864e-01 8.7574483052e-03 -5.3963878017e-03 -7.9121031385e-02 4.1414037088e-01 -3.0170819918e-01 -3.5457522563e-01 1.3933185572e-01 1.5488205460e-01 -1.2198909973e-01 4.6507547726e-01 -7.0694607000e-03 9.1634767420e-02 7.9933299331e-02 -6.7034909628e-01 -1.8280070980e-01 -4.1547186900e-01 3.7796413050e-01 2.8813432506e-02 2.4298907262e-01 1.7721697426e-01 -2.8863201901e-01 2.8510369039e-01 9.1153113578e-02 -1.8067782038e-01 -7.3932061435e-01 -3.2647703812e-01 -4.2378531838e-01 -6.9177214592e-02 2.8740331301e-01 -2.3048915952e-01 9.9788134491e-03 -1.1825010375e-01 9.6760267641e-02 -3.7677847241e-01 -5.8059899691e-03 7.7292486250e-03 -5.0881022831e-01 -4.2755962117e-01 1.8149376916e-01 -1.9556393510e-01 -3.1755342395e-02 9.5871817110e-02 -3.0817538937e-01 7.4623990583e-02 2.6466133322e-01 1.2916069681e-01 2.3809763153e-01 4.6149194592e-01 3.2353676879e-01 1.9389870740e-02 5.5956634543e-02 -3.5950381188e-01 -5.9386973192e-02 9.6985815077e-02 7.2695967699e-02 1.7670834256e-01 -1.5999367992e-01 2.6855594749e-01 -6.0034262012e-01 -3.1506171695e-01 3.1256163731e-02 2.8387017927e-01 6.7367090484e-02 -5.6174611393e-01 -2.1953240615e-02 -6.0138742476e-01 -1.5600836931e-01 -2.3995132752e-01 