1.8840593856e-01 9.1890850134e-02 1.5972461282e-01 -1.7537986532e-01 -6.5144900039e-02 -2.3805684460e-01 5.5231396003e-01 1.5413686355e-02 -4.3512790069e-01 1.5628951011e-01 -2.1042993474e-01 2.5237895112e-01 -1.8691394410e-02 -1.9878529186e-01 1.1619457437e-01 1.9020826107e-01 -3.5845045970e-03 2.5445295425e-01 -3.8732993166e-02 1.7329026076e-01 3.0509812140e-01 -3.0593100985e-01 4.3774640867e-02 2.7328497497e-01 3.3754207976e-01 1.4444934341e-01 -2.5315976989e-01 -6.7729687565e-02 -5.4318440350e-02 -3.9930415550e-01 6.8791049755e-02 5.3059310229e-02 -2.3763992201e-01 6.6223500752e-02 1.7976130589e-02 -2.9228921613e-02 1.1660976416e-01 6.6623314951e-02 -1.7639664994e-01 -3.2717416345e-01 -2.4838374632e-01 3.9308709506e-01 -6.1848676559e-02 -2.3738247448e-01 -2.5124535829e-01 -1.4882206536e-01 1.1531585687e-01 -8.8524363097e-04 -1.5363293330e-01 4.4325655663e-02 -1.1529993233e-01 -3.2933250307e-01 5.9721332060e-02 3.1070687195e-01 -1.0610477502e-01 -9.9060369297e-02 1.1329977769e-01 -3.3257965855e-01 -1.1635151080e-01 -9.9069396498e-02 -6.2885146491e-02 -5.2421835921e-01 -1.6980438468e-01 1.7187120190e-01 1.9702728021e-01 -5.6627227807e-03 1.7721333907e-01 -1.1206793809e-01 -3.0625992660e-01 -2.2733853008e-01 1.9211076471e-01 -7.4610531683e-02 -2.4951443706e-01 1.8030382579e-01 -7.6769320451e-02 3.2171708689e-01 -5.1160541855e-02 1.9082883779e-01 4.7753105967e-02 1.1013331424e-01 2.3027058331e-01 -3.1528399365e-01 6.0135422480e-02 -1.7510349113e-01 3.2899879677e-02 4.9633580047e-02 -3.1813259095e-01 1.6269336890e-01 1.1766623855e-01 7.7039669822e-02 2.5599692373e-01 -4.8754578920e-02 3.7880291368e-02 3.8790185814e-01 -3.4727138965e-01 -5.9780777823e-02 -1.2758519829e-01 -1.1967280133e-01 -3.8448292244e-01 3.5662086386e-02 3.7635873919e-02 -6.0094328931e-02 -3.3604757665e-01 -2.5665100631e-01 -2.6349124832e-01 1.9517194807e-01 2.5280300193e-01 1.9892791015e-01 -1.6222784688e-03 1.7440498452e-01 -3.7562326147e-01 -9.4229382651e-02 -4.4508422787e-02 -4.3210353293e-01 -2.2667058604e-02 1.4836561360e-01 -5.2367536747e-02 -2.3840442432e-02 -2.1940158075e-01 -8.5927406934e-02 2.9570663750e-02 -7.3441583570e-02 1.6079931548e-01 -2.0961194126e-02 -9.0179588798e-02 1.1527886869e-01 2.2805523525e-01 -2.1241305324e-01 -2.8600730790e-01 4.0542467116e-02 -1.0691946877e-01 -3.9834625125e-01 4.0257271742e-02 -5.8169316203e-02 -2.0295723913e-02 2.4866486519e-02 1.5593409464e-01 1.2610771685e-01 2.4155282210e-01 3.0327658802e-01 -2.7941336837e-01 8.7301450806e-02 1.9007757025e-01 1.0998535899e-01 3.0519444096e-01 2.1268567994e-01 5.1799104170e-02 -5.4418285265e-03 -9.5243367764e-02 1.1335004019e-01 -2.7024335510e-01 -2.3008601151e-02 3.7872420976e-01 -5.3938616222e-02 -1.5986915771e-01 -2.1705105757e-01 1.4177183597e-01 -4.4748849068e-01 -2.7996156137e-01 6.2428259287e-02 1.6476885559e-01 3.5922594607e-02 3.8480209200e-02 1.6678966042e-01 -2.4806222264e-01 -1.2085126483e-01 -1.9248875923e-01 2.7395230252e-01 2.2728843765e-01 2.5618527999e-01 4.4896248176e-01 1.3323961004e-01 -2.5122055143e-01 -2.8226035573e-01 -1.5945469207e-01 4.3383217198e-02 -1.1682488981e-01 5.2848909685e-02 -2.9304504190e-01 -2.1552234261e-01 1.9285246163e-02 3.9407611272e-02 -2.6347075324e-01 4.3010741395e-02 1.6844761429e-01 -5.6721661280e-02 9.3098604199e-02 -7.0670342488e-02 5.8097198162e-03 1.3889684546e-03 1.1612401499e-01 -1.0984361522e-01 -8.1185370391e-02 3.2330568909e-03 5.2119347951e-02 -5.4516599099e-02 -5.9978404044e-02 -1.5803736250e-01 -2.5993761326e-01 1.3001978301e-01 -1.1712642959e-01 -2.3871960661e-01 -1.0557975740e-01 -3.7980125091e-02 4.5410684106e-02 -5.7902167327e-02 -3.2563277113e-02 1.5187218210e-01 -1.4151719889e-01 -1.6536819033e-02 