2.0630656080e-02 4.6197192116e-03 -8.3188172731e-03 2.4334929867e-02 4.7352488719e-04 1.9279655334e-03 2.6879856246e-02 3.9845254105e-03 6.3122133836e-03 -9.2468710991e-03 1.2525472008e-02 -1.6352174907e-02 8.0890496366e-03 6.9835434198e-03 1.9762394762e-02 -1.0633907381e-03 -2.0720859343e-02 2.2414064959e-04 2.6039129202e-02 -5.6499246445e-03 -1.9289423158e-02 -5.9389396509e-04 -4.1937060080e-03 4.7653706111e-03 1.4950505670e-02 2.3952598901e-02 -6.7774900272e-03 1.2181844223e-02 -1.6983456430e-03 3.2623964237e-03 2.0783683242e-02 6.8983833101e-03 -6.0480523157e-03 1.2487200683e-02 1.0171072710e-03 2.5908209530e-02 1.1310560970e-02 1.8065295483e-02 1.2342109093e-02 -1.5889074372e-03 6.8714438558e-03 2.3982914846e-03 -7.2484804344e-03 5.6253633116e-03 -2.9952530875e-03 2.7876002222e-02 4.1813550541e-03 1.7743448749e-02 2.0417497328e-03 -6.4765416225e-03 -7.3079412672e-03 9.1363878426e-03 1.1843212092e-02 1.8632862773e-02 -1.6454398955e-03 -1.3960251096e-03 1.6981538520e-02 1.4013708411e-02 1.1724271331e-02 -5.3172579977e-03 -3.4375563175e-03 1.7647806967e-04 -7.3091553738e-03 9.3536068847e-03 -1.6020627124e-02 3.9215820794e-03 4.0477908758e-03 1.4677836185e-02 -1.7438946411e-02 -2.0671500723e-02 -2.7616127409e-02 2.2415996591e-03 1.3255380152e-03 5.1064337230e-03 2.1498566299e-02 -1.0800549333e-02 1.3954396397e-03 8.7659234376e-03 9.1139602822e-03 -3.1324807831e-03 1.1500872753e-02 -1.1812661617e-02 -2.0505988409e-02 9.4375074793e-03 -9.9229679235e-03 5.3678534802e-03 -5.4527826912e-03 1.2896570420e-02 -1.1013573123e-02 7.5557317365e-03 5.1737775299e-03 -2.3343497376e-02 -1.6246008450e-02 2.1360617019e-02 -1.2766411835e-02 4.7563664866e-03 2.6207259080e-03 4.8440893497e-03 1.5677691663e-02 9.5669079712e-03 7.1417077691e-03 -2.2811571337e-02 2.9678056486e-03 -3.3598870337e-03 -1.0517403475e-02 2.0792012393e-02 9.2458374354e-03 7.1629469363e-03 -6.7846882794e-04 1.5501076239e-02 1.1174719467e-02 -1.7741389877e-02 1.0352151510e-02 6.0356714951e-03 1.4185357000e-02 3.6245051280e-03 -1.8986500284e-03 1.7497046933e-02 -5.2792554011e-03 3.5401526115e-03 7.0192708265e-03 2.2756709372e-02 1.0987957702e-02 3.4658930723e-03 5.6345295657e-03 -1.1477942272e-02 -1.4016449243e-02 3.0175426445e-03 -1.7886016085e-02 1.5590904659e-03 2.3515495286e-02 -2.4525944388e-02 -2.1205834687e-03 1.0476015172e-02 1.4081053836e-02 -9.6851552956e-03 5.1033746965e-03 -2.4885534554e-02 -2.4130454493e-02 -3.4301240707e-03 -6.0613775288e-03 -1.4081146121e-03 4.8981776433e-03 -9.7231901706e-03 4.7247919403e-03 -1.7633966268e-02 -3.5744040605e-02 -1.5064042868e-02 -5.6178688582e-03 -3.4565487098e-03 5.6288498316e-03 2.6787406492e-02 1.6759142637e-02 1.4325920295e-02 3.4198101126e-03 2.2519044040e-03 1.2772914949e-02 -3.2118948754e-02 -8.2204200837e-04 -5.5543646036e-03 4.2058651041e-03 6.8544602265e-03 -2.6363968703e-02 5.5207235110e-03 2.4801481598e-03 -1.7163974481e-02 -8.9807108228e-04 -7.1534618330e-03 -6.5582179806e-03 -8.5179808703e-03 -1.7722271189e-02 6.2503031358e-03 -6.6721827824e-03 -2.5834064092e-02 -6.2086107826e-03 9.5328749358e-03 5.7381987629e-03 8.0538613455e-03 -2.8753510944e-03 9.3250025003e-04 -2.7768333956e-02 -4.8179979964e-03 3.4952609657e-03 3.1224133666e-03 4.7048125939e-03 1.4534971873e-02 -1.4280663811e-02 -8.6689608750e-03 -1.1547734966e-02 5.5890759544e-03 3.1538181143e-03 9.5077831122e-03 -6.3650249196e-03 -6.8871607430e-03 3.3561474442e-03 -4.2771692697e-03 -1.8727562150e-03 -1.2137094678e-02 -1.1410814878e-02 5.8926489593e-03 8.8671360376e-03 -8.9811469459e-03 -2.7658015772e-03 -1.2234883195e-02 8.0376303020e-03 5.1123352676e-04 2.7117153586e-03 -3.0924625295e-02 1.5862031661e-02 1.0123420324e-02 