-4.9066800922e-01 -2.0767739068e-01 2.0185362219e-01 -2.1630483139e-01 4.7967256156e-01 6.2684243725e-02 6.3637413992e-01 9.5666876816e-02 2.6375655855e-01 1.6394978385e-01 8.6961071737e-02 8.6961056835e-02 1.2121696968e-02 8.6961064121e-02 8.6961065817e-02 -1.3449685837e-01 3.0757204555e-01 5.4590307170e-02 -2.5942200762e-01 -1.6674930368e-01 -5.1137379203e-01 -1.6279179741e-01 6.9798916625e-02 6.5724077252e-02 1.8658278692e-01 -1.6487120640e-01 -3.0191573230e-01 1.3416197656e-01 1.6383086187e-01 1.6383086846e-01 1.2293868871e-01 1.6383086600e-01 1.6383086345e-01 3.6466409087e-01 2.4579597197e-01 -3.7383484832e-02 1.7237741372e-01 2.3307827437e-01 -4.8413990642e-01 -2.7118178582e-01 -2.5786375389e-02 -3.1106676321e-01 -1.6136149832e-01 -2.2567367524e-01 5.3863482542e-01 1.1335780559e-01 1.1335779931e-01 -5.7209532247e-01 1.1335780042e-01 1.1335779056e-01 -5.0564563727e-01 -1.2824130240e-01 -2.2511243760e-01 1.1621390761e+00 -3.6831743599e-01 5.2372179531e-02 -3.1879634361e-01 2.2663475746e-01 1.6404467057e-01 -8.3532710744e-02 6.9024272046e-01 -2.9746775527e-01 -2.9746772629e-01 1.9694300020e-01 -2.9746772685e-01 -2.9746771893e-01 5.5657852689e-02 -2.4673368154e-01 1.9131112778e-01 2.9103769357e-02 5.2851670611e-02 1.9781373633e-01 -6.7447433864e-01 4.0839715938e-01 2.0057985971e-01 -2.6392640389e-01 2.0505243271e-01 2.0505243139e-01 -8.9223455272e-02 2.0505245318e-01 2.0505243281e-01 6.0002724987e-01 -6.9530362830e-02 -1.0990600268e-01 -1.0420057627e-01 6.1465902616e-02 -2.4223536944e-01 9.4134274913e-02 1.0113465337e-01 2.0220949664e-01 -1.9545354016e-01 -1.9545350079e-01 3.7902502825e-01 -1.9545349426e-01 -1.9545350892e-01 -3.6166380239e-01 4.5477337767e-01 3.9164267568e-01 -6.5805820543e-01 2.1231985134e-01 -4.1881098589e-01 -1.5183193178e-01 1.2349650755e-02 3.4136765085e-01 3.4136767012e-01 -4.3365667399e-02 3.4136765865e-01 3.4136765738e-01 -1.9210463183e-01 -2.5074190771e-01 -2.3939913478e-01 -2.6340634522e-01 -2.6308490440e-01 5.2896650114e-01 6.7047411394e-01 6.0256226630e-02 6.0256210709e-02 -4.4742321833e-01 6.0256226753e-02 6.0256218788e-02 1.9846045479e-01 -8.7362070308e-01 1.0532414343e-01 2.7963058191e-01 4.7089425499e-01 3.9867239470e-01 2.1466346877e-01 2.1466347339e-01 -2.5392471682e-01 2.1466347873e-01 2.1466347573e-01 -1.3537777000e-01 7.1615593858e-02 -1.1336315187e-01 1.0458039618e-02 -4.3634960433e-01 2.4857478934e-01 2.4857477047e-01 -2.1155964126e-01 2.4857476789e-01 2.4857476518e-01 -1.1603104896e-01 -4.1966963529e-01 -1.2872016399e-01 2.8660036973e-01 -2.1108848662e-01 -2.1108850297e-01 5.3064571471e-02 -2.1108850471e-01 -2.1108849528e-01 2.6217913793e-01 -1.7560009622e-01 5.8584400651e-01 -4.3153798361e-02 4.3664932378e-01 -2.9237893671e-01 4.3664927894e-01 4.3664936674e-01 2.9958701121e-01 5.6088830911e-02 -3.5953466647e-01 1.4587060048e-01 -2.9237893692e-01 4.3664937357e-01 4.3664933492e-01 2.9958699155e-01 5.6088802700e-02 -3.5953464304e-01 1.4587058945e-01 -2.9237895292e-01 -2.9237892895e-01 -8.8754235189e-02 4.3832446826e-01 1.2549094180e-01 -2.3274436822e-01 4.3664931438e-01 2.9958699425e-01 5.6088834209e-02 -3.5953468282e-01 1.4587059442e-01 2.9958698895e-01 5.6088825630e-02 -3.5953466504e-01 1.4587058957e-01 -1.1534569438e-01 -2.1877590492e-01 -1.6515129371e-01 2.3523519993e-01 8.2676621534e-03 -3.0314771201e-01 1.7118724820e-02 -7.4121645179e-03 -4.9136166555e-02 1.0276754758e-01 -2.5559171473e-02 7.9457968673e-02 -1.4960685688e-01 -2.7650977579e-02 -2.2789858136e-01 -1.7956230843e-01 3.9253230933e-02 -1.9982875743e-01 -1.9982876232e-01 1.5737762977e-01 -1.9982877272e-01 -1.9982880312e-01 -9.7465296024e-02 -1.5122981162e-01 1.1421547682e-01 -2.0270910701e-02 