-2.0439480869e-01 3.3123630396e-01 1.2851045652e-01 2.0002951899e-01 1.2193539145e-01 1.5349819555e-01 -2.0002952763e-01 -2.0002952060e-01 -4.1382573486e-01 -7.0726980143e-01 1.1445882497e-01 -1.5349820045e-01 2.0002952663e-01 -1.3542966172e-01 -2.0002952321e-01 3.5514914799e-01 3.3123630358e-01 1.3304154579e-01 1.6393534495e-02 -4.3938052009e-02 2.3032871824e-02 5.3132944104e-03 -6.7531132303e-01 8.7857926281e-02 -5.3132888487e-03 -5.3132876155e-03 -1.4292296166e-01 4.0849883307e-01 5.8093637649e-02 -8.7857937897e-02 5.3132977343e-03 -4.9802427907e-01 -5.3132898804e-03 4.7390304992e-02 -4.3938059268e-02 3.6684815689e-01 -6.0774504761e-01 -1.1529025958e-01 3.0899514497e-01 2.9722661795e-02 2.5598343654e-01 -3.0899514495e-01 -3.0899513114e-01 1.1111659202e-01 2.5535219844e-01 7.1579842174e-02 -2.5598344466e-01 3.0899514724e-01 -3.5406482100e-02 -3.0899514222e-01 5.8128142839e-02 5.7682916642e-01 3.1744277809e-02 -1.5536005889e-01 -1.5257192329e-01 -3.7254011535e-01 -2.3685015813e-01 1.5257190757e-01 1.5257191217e-01 -2.0370045635e-01 -6.5171551878e-02 1.8775139851e-01 2.3685016221e-01 -1.5257190732e-01 6.8533460469e-01 1.5257191275e-01 1.8227434036e-01 -1.1529026023e-01 -4.3132046432e-01 3.1577332427e-01 -3.3770226677e-02 3.1176753236e-01 -3.7338828104e-01 -3.7338828228e-01 1.4555114435e-01 1.2142578296e-01 4.3301976763e-02 -3.1176749791e-01 3.7338828269e-01 -6.5650502643e-02 -3.7338825563e-01 3.1758538432e-02 3.0899513877e-01 6.1038817315e-02 -2.0563678939e-01 -1.1003288731e-01 3.3770228776e-02 3.3770233462e-02 1.7705340014e-01 -4.4062749812e-01 1.6912451175e-01 1.1003288171e-01 -3.3770218898e-02 8.7522931467e-02 3.3770227845e-02 1.7365407089e-01 2.9722661935e-02 -4.3201515984e-01 -4.2025363453e-02 -3.1176748932e-01 -3.1176750922e-01 2.0107992358e-01 6.7242171464e-02 1.6811382105e-02 -5.4589508146e-01 3.1176749316e-01 -1.1341871130e-01 -3.1176749738e-01 6.2830582891e-03 2.5598345384e-01 1.0620336414e-01 -7.7509831699e-02 3.7338827987e-01 -1.4555114321e-01 -1.2142579355e-01 -4.3301961175e-02 3.1176751486e-01 -3.7338826824e-01 6.5650530067e-02 3.7338828370e-01 -3.1758539089e-02 -3.0899514379e-01 -6.1038801813e-02 2.0563679496e-01 -1.4555115369e-01 -1.2142578318e-01 -4.3301967204e-02 3.1176750502e-01 -3.7338826756e-01 6.5650542192e-02 3.7338828416e-01 -3.1758551494e-02 -3.0899515494e-01 -6.1038791507e-02 2.0563678461e-01 -1.6114948206e-01 -5.8695335400e-01 -2.0107992106e-01 1.4555113099e-01 3.4799014932e-01 -1.4555115208e-01 -7.5720146903e-01 1.1111658532e-01 -7.5084596090e-03 -2.8310430894e-02 5.2180938727e-01 -6.7242168302e-02 1.2142579375e-01 1.5874453744e-01 -1.2142578720e-01 4.8684743513e-01 2.5535220469e-01 -1.7646780704e-01 -2.1988918540e-01 -1.6811385313e-02 4.3301970501e-02 3.2458751351e-01 -4.3301962189e-02 6.6398121090e-01 7.1579836888e-02 -3.1327785072e-01 3.1539394873e-02 -3.1176750740e-01 1.1341869479e-01 3.1176752443e-01 -6.2830449531e-03 -2.5598342311e-01 -1.0620337247e-01 7.7509820723e-02 -6.5650515725e-02 -3.7338828929e-01 3.1758512720e-02 3.0899514817e-01 6.1038804436e-02 -2.0563680670e-01 6.5650542147e-02 3.2855428333e-01 -3.5406496250e-02 -8.2376186023e-01 2.4637196335e-01 -3.1758531042e-02 -3.0899513479e-01 -6.1038786987e-02 2.0563678786e-01 5.8128133701e-02 -3.1316783282e-01 3.6842744822e-02 3.1744272200e-02 -1.5536005369e-01 -2.4771437704e-01 -1.9395184609e-01 -5.0115852148e-02 -3.3620696412e-02 -1.5175265857e-01 -7.1379839049e-03 -1.1211611794e-01 1.7739241344e-02 7.1379858673e-03 7.1379875466e-03 3.1151864085e-01 -3.1821048675e-01 -3.6504738578e-01 -1.7739233787e-02 -7.1379880632e-03 -2.2107658893e-01 7.1380075715e-03 -4.9634928567e-01 -3.3620699446e-02 2.1371206040e-01 -3.8934864270e-02 