7.0663910331e-03 -1.0294538163e-01 7.5405568562e-02 -9.8430441836e-03 -2.4024271036e-01 -2.0463856742e-01 3.9806547523e-01 -1.2452785915e-01 3.9806551398e-01 -3.9806547281e-01 3.9806546504e-01 -2.0463861225e-01 -1.7030701866e-01 -3.9806548054e-01 -9.5161002169e-03 2.0463859208e-01 -7.9841138410e-02 1.8636180268e-02 5.1453104363e-01 -5.9431311879e-02 9.4019538391e-01 7.7577857617e-01 2.2694882094e-01 -2.1945241724e-01 -4.3085550351e-02 5.1339799591e-01 -4.3085541230e-02 4.3085539399e-02 -4.3085557601e-02 -2.1945243306e-01 -5.3118515045e-01 4.3085570821e-02 -1.4223444843e-01 2.1945243125e-01 -1.1550368567e-01 1.9888965471e-01 5.9971913838e-02 6.8986668507e-02 4.6779113416e-02 -2.4045540596e-01 4.3653232411e-01 -2.1478071603e-02 2.9845741072e-01 -2.1478064780e-02 2.1478068407e-02 -2.1478043925e-02 4.3653232267e-01 -4.4878007881e-01 2.1478048095e-02 3.0495737541e-01 -4.3653230720e-01 2.3321011847e-01 2.7451379017e-01 -2.0774913387e-01 4.7402062836e-01 1.8561294796e-01 -1.1120543928e-01 2.2451801542e-02 2.0418632835e-01 2.2451812826e-02 -2.2451803503e-02 2.2451802496e-02 -1.1120541852e-01 7.1258556160e-02 -2.2451823165e-02 -1.8916756571e-02 1.1120542513e-01 5.0776197720e-02 2.2635776228e-01 1.5340933630e-01 3.2745240281e-01 -1.4591556426e-01 -5.6881516595e-02 8.3269697866e-01 -5.6881518889e-02 5.6881512633e-02 -5.6881514983e-02 -1.4591555660e-01 -2.1400195899e-01 5.6881506469e-02 -7.8278881132e-02 1.4591556369e-01 -5.7609772758e-02 -2.3008971073e-01 3.5604435395e-02 -2.8526383959e-02 -3.0011633831e-01 4.3119548296e-01 -3.0011634400e-01 3.0011635960e-01 -3.0011635427e-01 -2.8526364795e-02 8.8831124098e-02 3.0011632867e-01 8.6019852321e-02 2.8526396952e-02 1.1497705183e-01 8.2800525895e-01 -1.6814660686e-01 -1.2653789642e-01 -8.3313379953e-02 -1.2653793903e-01 1.2653793274e-01 -1.2653791948e-01 5.0379676903e-01 -2.3555460040e-01 1.2653790303e-01 3.8050015236e-01 -5.0379674901e-01 3.1219231731e-01 4.2817057381e-01 -3.0154512227e-01 -1.7545767999e-01 4.5989317239e-01 -4.5989315359e-01 4.5989318836e-01 -1.2653791254e-01 -2.6145510629e-01 -4.5989318146e-01 -2.4246890241e-01 1.2653793112e-01 -2.6728432373e-01 1.1305201217e-01 3.2042608252e-01 -1.7545769688e-01 1.7545769586e-01 -1.7545768289e-01 -8.3313389354e-02 -4.1804348555e-01 1.7545769577e-01 9.6541945110e-04 8.3313378807e-02 2.6636233083e-02 -1.3404514821e-01 -6.7552205853e-02 -4.5989317712e-01 4.5989313683e-01 -1.2653786257e-01 -2.6145510301e-01 -4.5989317150e-01 -2.4246893414e-01 1.2653790478e-01 -2.6728431566e-01 1.1305199262e-01 3.2042607531e-01 -4.5989318545e-01 1.2653790866e-01 2.6145510610e-01 4.5989317016e-01 2.4246891040e-01 -1.2653789193e-01 2.6728432991e-01 -1.1305201675e-01 -3.2042606547e-01 -1.2653791047e-01 -2.6145510735e-01 -4.5989317872e-01 -2.4246890418e-01 1.2653796176e-01 -2.6728430217e-01 1.1305200634e-01 3.2042608444e-01 -2.3555459613e-01 1.2653793080e-01 3.8050015594e-01 -5.0379675970e-01 3.1219232066e-01 4.2817055471e-01 -3.0154512153e-01 2.6145511083e-01 -7.9560333017e-02 2.3555459752e-01 -1.5549168385e-02 -4.3250814365e-02 -5.0874881882e-02 2.4246893921e-01 -1.2653789403e-01 2.6728431324e-01 -1.1305197537e-01 -3.2042606948e-01 -3.8050015240e-01 7.1076778283e-01 2.5822314311e-01 1.5942572996e-01 -3.1219231786e-01 -4.2817059418e-01 3.0154511441e-01 1.7168065031e-01 -8.0517892766e-02 -1.1330757092e-01 -1.5140484701e-01 -1.1343521086e-01 1.7379550881e-01 -3.2589037322e-01 -7.9589295335e-02 -5.0929787200e-02 2.3183463634e-01 -8.3142147515e-02 -3.5920785000e-02 -8.3142141401e-02 8.3142153812e-02 -8.3142138625e-02 2.3183464431e-01 -4.3798004405e-02 8.3142127647e-02 1.6731199071e-01 -2.3183464382e-01 1.1120445680e-01 1.6323664101e-01 -2.2068537749e-01 