5.2902650416e-01 -4.0995807081e-01 4.0995807050e-01 5.4100409042e-02 3.4567047784e-01 5.4100406774e-02 1.2839209587e-01 -1.0797255944e-02 3.9038589591e-01 3.0267434266e-01 7.1858762758e-01 -7.4452245493e-01 2.0162409878e-01 4.1098126695e-03 -1.9419652135e-01 -6.2344964720e-01 -4.0888747312e-01 2.4227363145e-02 -2.6234908870e-01 -7.3896441732e-02 7.3896438135e-02 -7.5400905696e-02 -6.1569312270e-02 -7.5400892601e-02 -5.1317126155e-01 -3.1816393368e-01 -1.8747092830e-01 3.3002247561e-01 4.9290841378e-01 -1.5563061094e-01 4.5567959405e-01 -4.6226799466e-01 -1.1490984189e-01 3.5329019190e-01 -6.3207029884e-01 2.1310283153e-01 2.3363451570e-01 -7.0288966654e-01 -1.7799893451e-01 -5.8076555645e-01 -1.7799896596e-01 -3.0779394047e-01 -1.0855409104e-01 -5.1207241677e-01 8.2903536027e-02 1.8245536106e-01 3.8276522536e-01 -4.2201861874e-02 2.1885017058e-01 4.7199787106e-01 2.5411995260e-01 1.4138475272e-04 3.2195974168e-01 -1.4391049565e-01 1.7799896757e-01 5.8076558083e-01 1.7799893168e-01 3.0779392816e-01 1.0855409559e-01 5.1207241397e-01 -8.2903562659e-02 -1.8245537292e-01 -3.8276523458e-01 4.2201859777e-02 -2.1885017488e-01 -4.7199784440e-01 -2.5411994925e-01 -1.4140300041e-04 -3.2195975353e-01 1.4391051500e-01 2.7211992038e-01 1.2377762962e+00 3.6379901977e-01 8.6706194386e-01 1.0741463456e-01 -1.4515902513e-01 1.7789619464e-01 -4.0623052590e-01 -1.9373654752e-01 -6.4593727578e-01 -3.1846827014e-01 4.1386651888e-03 5.1082509310e-02 -7.9086118300e-02 -6.9431443222e-02 2.7211989938e-01 2.9741412861e-02 2.1619358925e-01 4.2478717600e-01 -1.2295636845e-01 -8.7763341140e-02 -2.7962800157e-01 8.2063349350e-04 -3.6144272893e-01 -6.9647174239e-01 -2.1828349877e-01 3.8942358745e-02 -2.2711626743e-01 -6.4531257372e-02 3.6379902921e-01 8.6706194569e-01 1.0741463390e-01 -1.4515901900e-01 1.7789620093e-01 -4.0623053516e-01 -1.9373655508e-01 -6.4593727046e-01 -3.1846829536e-01 4.1386534888e-03 5.1082516760e-02 -7.9086108880e-02 -6.9431448802e-02 8.6506132222e-01 2.1138009473e-01 -3.2251036243e-01 1.0981578596e-01 -5.8209917540e-01 -3.3281582532e-01 -2.6605443860e-02 5.1113175085e-01 4.4039546652e-02 1.1112619319e-01 -1.7349995610e-01 1.2131400315e+00 3.9503782056e-02 -1.9067308958e-01 3.3285015352e-01 -3.3700546535e-01 -2.3986574605e-01 -5.4054289487e-01 -2.9422255218e-01 8.5697812753e-02 9.6677314726e-02 -2.8333441746e-02 1.1441735473e-02 7.2142497990e-02 -3.5711195451e-01 -4.3850611443e-01 3.5776658906e-01 -1.1493910091e-01 -3.1139934571e-01 -5.7426052031e-01 -1.8454482946e-01 1.8049831398e-01 -1.7033507893e-01 -1.7994444225e-01 -5.9889382541e-02 9.1270340933e-01 9.1775379277e-02 4.0566278874e-01 -2.9742013844e-01 -1.4544717225e+00 -8.1156823317e-01 -2.1382581689e-01 3.6122867568e-01 -7.6231926665e-01 5.9433598503e-02 -2.7847678459e-01 1.7114047137e-01 2.4696202105e-01 4.0164305961e-01 3.6812639385e-01 -8.1411040902e-02 -3.5801187655e-01 1.5332548877e-01 3.8299076632e-01 1.6856679652e-01 -1.0667553696e-01 5.7992469733e-01 -3.9655870501e-01 -7.5789000068e-01 -7.0852045517e-01 2.3539319615e-02 -2.6478966376e-01 7.0000387421e-01 4.6576010036e-01 -2.5147624365e-01 5.2914897948e-02 3.8948128683e-01 6.3088194924e-02 8.1861935844e-02 -2.4289216389e-01 2.3861839380e-02 6.4275273569e-02 5.9212288239e-01 4.7201900608e-01 -7.3586437923e-03 7.0487847897e-01 1.8183715587e-01 7.4087824483e-01 2.1148259993e-01 5.0841611485e-02 -1.2701885033e-01 1.2701884377e-01 -1.9195037890e-01 6.3545443152e-02 -1.9195037933e-01 -5.2521432276e-03 4.2931069919e-01 2.6801145865e-01 -2.6884174032e-01 1.9865863259e-01 1.3334455094e-01 -3.3963576224e-01 1.2973879882e-01 1.5685832622e-01 -7.5914565076e-01 -1.0496724029e-02 -1.5210391791e-01 6.8069270204e-01 