-3.7758823033e-01 8.7479977453e-01 1.0364705572e-01 -1.5253965876e-01 8.5346162282e-01 1.7492636448e-01 4.7780816788e-01 3.4769858100e-01 1.8251421171e-01 5.2733223542e-01 7.3828473433e-01 8.8028829667e-02 3.8267862175e-01 -1.1228064481e-01 -6.5302732577e-01 -4.9518522418e-01 -1.8361956938e+00 6.8688940042e-03 -1.9016184264e-02 8.3206475465e-02 3.4687130319e-01 1.0897132481e+00 6.2140107352e-01 9.2691122354e-01 1.1412314528e-01 7.0416935269e-01 5.1689311023e-01 -3.9266544747e-01 6.4842492071e-01 6.0371957114e-01 -7.2325347607e-01 6.8971832248e-02 -5.2637288163e-01 -5.2785378264e-01 3.7758821543e-01 3.3165791776e-01 5.3496517566e-01 -1.0499097687e+00 -3.2375144193e-01 -4.4488590663e-01 -1.7644676877e+00 1.0446019067e+00 8.9450239969e-01 -2.7858100308e-01 -2.9286854125e-01 -8.5303663822e-01 -6.2433724381e-01 -3.8780421790e-01 6.9586665043e-02 -2.1784936574e-01 -8.9508693375e-01 -8.7479979888e-01 7.1172866550e-01 5.6893217046e-02 7.6972958343e-02 -8.9431744504e-01 5.4805500830e-01 -5.2218690954e-01 -2.3822314912e-01 8.0897518245e-01 4.2481884803e-01 -6.2881378291e-01 1.3001382255e-01 2.5068189032e-01 1.9716673711e-01 -5.1154575645e-01 -5.8056858930e-01 -1.0364703355e-01 -1.6244500485e+00 4.8678455204e-01 4.0064011144e-02 8.9048653487e-01 -1.0604219180e-01 -1.9387319788e-01 -7.6263573543e-01 -1.1337613910e+00 2.3320866685e-01 -9.9152644912e-03 -2.7147790351e-01 -2.9567306207e-01 -1.6389866976e+00 8.3791437285e-02 1.5253962651e-01 1.9381500932e-02 -2.7944247099e-01 3.7327864499e-01 8.9625162297e-01 7.3656018739e-01 1.3912540575e-01 3.3987008037e-01 3.1846062569e-01 1.8448039640e-01 3.5769733047e-01 3.8643381839e-02 -4.6730882293e-01 -4.8098709132e-01 -8.5346159790e-01 2.6532600768e-01 -1.5883699380e-01 3.9784380942e-01 -2.8113442628e-01 -1.0950310380e+00 3.9754965958e-01 2.1189072683e-01 8.5712482642e-01 -4.0874314710e-01 1.1430681303e+00 -3.6802432578e-01 -3.9976730597e-01 -1.7492635873e-01 -4.0702768284e-01 -2.6122668020e-01 -2.9476107218e-01 2.1378439999e-01 4.0958606215e-01 -8.5492259388e-02 1.1622836512e-01 4.0047598610e-01 -1.4141980872e-02 -7.7935761292e-01 -1.6364663189e+00 -4.7780812531e-01 -2.7941120856e-03 -1.8958072322e-04 -1.3908104632e-01 -1.2723184031e-01 6.1389715349e-02 -7.2151140860e-01 -5.6245037518e-01 4.3926798320e-01 1.1434050440e+00 3.1272798503e-01 -3.4769855801e-01 -1.6961665877e+00 -5.4734925950e-02 6.8777595558e-01 4.4293525439e-01 -2.6916874464e-01 6.2878215859e-01 -9.8019745173e-01 4.8398436102e-02 -1.4350421848e-01 -1.8251425907e-01 -1.2961656049e-01 1.2001360341e+00 -7.5440516276e-01 -3.6568843491e-01 5.2093919903e-01 1.3502132632e-01 3.6689990793e-01 -3.0987930985e-01 -5.2733226858e-01 -1.1452948398e+00 2.6630857876e-01 1.5751724944e-01 1.2639305949e+00 -3.1732818653e-01 7.5899091540e-01 2.2003394704e-01 -7.3828472057e-01 -1.8251503193e-01 3.8505580846e-01 -1.3876853593e-01 2.0131080820e+00 1.3729265092e-02 -1.3246155495e-01 -8.8028932017e-02 2.4533037124e-01 -1.2822891966e+00 -1.6048870288e+00 -2.0176090345e-01 -3.4683691991e-01 -3.8267848585e-01 -5.9317072012e-01 2.7933987456e-01 -1.2963985212e-01 -3.3322457304e-02 1.1228076744e-01 -2.8053802321e-01 7.1038093505e-01 9.4909605539e-01 6.5302740800e-01 1.9526249102e-01 7.5712571891e-01 4.9518516293e-01 -4.4446961868e-01 1.2532547993e-01 -6.8688633965e-03 1.9016077648e-02 -1.3835149951e+00 -5.2041963246e-01 -1.2064935261e+00 3.3163536283e-01 -8.0288759789e-01 -9.5213047690e-01 -1.3445139221e-01 -8.0074927824e-02 -6.4164674122e-01 -1.0893199696e-01 -5.1176773049e-02 -2.8277494454e-01 -2.9332531675e-01 1.5062277707e-01 -3.0268765478e-01 3.2100383423e-01 -1.0447054495e+00 3.9495324655e-01 5.2041963542e-01 -7.2225566037e-01 4.4412342684e-01 