1.3494455779e-01 2.0933904332e-01 -3.0508091876e-01 5.5907729593e-02 -5.9110783663e-02 2.3103570542e-01 -1.2101285326e-01 -1.8489603429e-01 2.0933904575e-01 -5.0425688612e-02 2.3459204041e-01 2.0933903353e-01 2.0933904453e-01 1.8584873806e-01 -2.0933903224e-01 3.1043821379e-01 2.5032247932e-01 -2.0933903990e-01 2.0933904833e-01 -3.1990694795e-02 -2.2311462582e-02 4.8712201506e-02 2.0738805519e-01 -9.4322617179e-02 -5.7802064410e-02 -1.1410403313e-01 -3.1990701750e-02 1.5490769868e-02 -5.0767261298e-01 -3.1990661109e-02 -3.1990670593e-02 -4.2663323949e-01 3.1990684001e-02 5.5189911667e-01 7.8145601067e-01 3.1990694678e-02 -3.1990684359e-02 -2.6135973695e-01 -8.9586438139e-02 -1.7612399267e-01 2.0924461977e-01 -2.7354962312e-01 -2.1876792131e-01 3.4084089064e-01 1.2139441543e-01 1.7336535852e-01 3.4084088209e-01 3.4084088214e-01 1.6167150125e-01 -3.4084087941e-01 9.6116289558e-02 5.0741677370e-02 -3.4084089954e-01 3.4084087976e-01 5.8045055421e-02 1.3645566011e-01 -3.3890444619e-01 1.9077302717e-01 3.2417988623e-01 -2.6135973035e-01 -5.8970551639e-02 -3.5992541529e-01 -2.6135974299e-01 -2.6135973178e-01 -3.0409434996e-01 2.6135973429e-01 -1.3567592204e-01 -9.2933825285e-02 2.6135973460e-01 -2.6135973389e-01 8.9403747251e-01 -2.4942439994e-01 -2.2673210723e-03 -3.3533223910e-02 -8.9586437653e-02 4.5327150068e-02 2.7324929263e-01 -8.9586432532e-02 -8.9586415222e-02 4.2457574183e-01 8.9586432625e-02 5.4663483914e-01 5.4379621433e-01 8.9586389753e-02 -8.9586404882e-02 5.3229873336e-02 8.9990320222e-02 7.3731856368e-02 -1.7612399020e-01 -3.3513449881e-01 4.0308028082e-01 -1.7612399829e-01 -1.7612402917e-01 -4.1827216449e-02 1.7612399168e-01 2.0155174761e-01 -3.4407826442e-02 1.7612402987e-01 -1.7612400673e-01 -1.3990740701e-01 -2.4972684832e-01 2.0924461251e-01 -1.6744065621e-02 2.3891952252e-01 2.0924462304e-01 2.0924461767e-01 6.7978991353e-01 -2.0924463243e-01 5.9874706762e-02 1.5578679593e-02 -2.0924459097e-01 2.0924462237e-01 1.3706802316e-01 -2.7354961086e-01 -5.0410983842e-01 -9.7019882872e-02 -2.7354962117e-01 -2.7354961259e-01 -9.1617667663e-02 2.7354961968e-01 -2.2647604560e-01 -1.6255678699e-01 2.7354961480e-01 -2.7354958571e-01 -2.1876792973e-01 2.0857403665e-02 -2.5897846938e-01 -2.1876795076e-01 -2.1876793201e-01 -2.0808113377e-01 2.1876793319e-01 -2.7044056988e-01 -2.1581943109e-01 2.1876793001e-01 -2.1876794967e-01 1.2139441703e-01 1.7336537506e-01 3.4084088833e-01 3.4084088608e-01 1.6167147361e-01 -3.4084088463e-01 9.6116295196e-02 5.0741684159e-02 -3.4084090141e-01 3.4084088420e-01 3.7947392473e-02 1.2139443599e-01 1.2139441145e-01 -2.0776839141e-01 -1.2139443721e-01 -1.8521800712e-01 2.6922162988e-02 -1.2139438064e-01 1.2139444872e-01 1.7336536949e-01 1.7336536183e-01 -7.7469759600e-02 -1.7336534096e-01 -1.3040361829e-01 -1.9384987313e-01 -1.7336537029e-01 1.7336535201e-01 3.4084088038e-01 1.6167146890e-01 -3.4084087713e-01 9.6116262506e-02 5.0741677239e-02 -3.4084089336e-01 3.4084087916e-01 1.6167149472e-01 -3.4084088622e-01 9.6116287997e-02 5.0741670013e-02 -3.4084089410e-01 3.4084088708e-01 -1.6167151363e-01 -1.2645279419e-01 -1.8415415111e-01 -1.6167147975e-01 1.6167150170e-01 -9.6116287110e-02 -5.0741680716e-02 3.4084089264e-01 -3.4084087922e-01 5.7593820993e-01 -9.6116272493e-02 9.6116265792e-02 -5.0741677132e-02 5.0741663603e-02 -3.4084089043e-01 -2.0607577533e-01 -3.1927643908e-01 -4.1180720104e-02 7.2782056022e-02 -3.6037745279e-01 -1.6931844280e-01 1.6925459867e-03 1.4044634454e-01 1.8214483209e-01 -4.1180721121e-02 -4.2536926450e-02 1.6336055177e-01 -4.1180702929e-02 -4.1180702587e-02 1.6796548531e-01 4.1180702336e-02 -5.6786166426e-01 -4.2206891563e-01 4.1180720243e-02 -4.1180725411e-02 