1.1998074958e-01 1.4283140278e-01 1.1909840691e-02 -1.7597931371e-01 -1.2733737398e-01 9.1958651611e-02 -7.4762192289e-02 -1.5601430798e-01 -5.5887090379e-02 -2.1215138424e-01 1.6026926014e-01 -1.6974989740e-01 -4.3115875990e-02 -1.9012492659e-01 -1.6231591378e-01 -2.3451725277e-01 1.1979986426e-02 -8.5070800772e-02 1.4455671455e-01 3.3442490584e-02 -1.0935951645e-02 -8.5273856646e-02 -1.1356702317e-01 2.1474913698e-01 -1.0044654864e-01 -6.0323391761e-02 -7.6174463899e-02 -1.1825854126e-01 7.1165620520e-02 -1.4308927355e-02 9.0371852754e-02 -1.0250849725e-01 -6.8647048024e-02 -7.6080588326e-02 6.1430201372e-02 -2.8595019223e-01 1.7520329610e-01 1.3642682383e-01 -9.6091349984e-02 -1.1790840133e-01 3.5487465908e-02 -1.0890746006e-01 -1.5876373009e-01 -7.6998391271e-02 -8.0517529501e-02 7.9690715931e-02 -6.1194514781e-02 -6.0241219084e-02 -1.1173983457e-01 -7.3566930215e-02 -1.0178416134e-01 1.8653453662e-01 -1.0832115510e-01 1.1969899919e-01 6.0301819232e-02 -1.5229360517e-01 1.5355613601e-02 -1.2139325111e-01 -1.7816511056e-02 2.3001738012e-01 2.2547815987e-02 -1.6395754149e-02 -1.7710368284e-02 -2.9605300391e-01 3.8415371772e-02 -8.7892967089e-03 -6.8437081566e-02 3.1462915703e-01 -1.3935542523e-02 -8.7713020700e-02 1.0291422328e-01 -6.8268098635e-02 9.3247484471e-02 1.7256375536e-01 1.3818687498e-01 1.7365841981e-01 -1.7550834400e-01 1.3059327706e-01 1.0110490688e-02 2.0679977511e-01 1.7920026817e-01 1.4934953694e-01 -3.3861882270e-02 1.0014039049e-01 -1.5651823270e-01 -2.3101600691e-01 1.7114091944e-01 6.7995437719e-02 2.7258477767e-02 1.3215847167e-01 -8.8552130561e-02 3.1545858691e-02 -9.6070280516e-02 1.1706143176e-01 1.3715565045e-01 1.6794570933e-01 -1.7764695715e-01 1.0228658808e-01 -6.8384219724e-02 -1.2338887529e-01 -3.9575023503e-02 6.9645078469e-02 -9.4047526644e-02 5.5535744183e-02 8.4131198604e-03 1.9663977307e-01 -8.5545497664e-02 -1.0777011971e-01 -1.2158256071e-01 7.3641717614e-02 -1.6821986305e-01 7.1716690881e-02 1.4731786695e-01 -6.4487015177e-02 7.7622914436e-02 -7.7603534830e-02 7.7221367037e-02 6.6616110797e-02 1.0713204443e-01 1.2056401911e-01 3.8975271380e-02 -2.6474454119e-01 1.7876862611e-01 -5.9677136306e-02 4.3850032300e-02 1.5708308728e-01 -1.5650700547e-01 1.0456583059e-01 9.4652793830e-02 1.8663161526e-01 1.5584006983e-01 1.2973387979e-01 -1.2397771886e-01 1.3360540885e-01 -1.4074406616e-01 9.1734765002e-02 -8.5956093003e-02 -1.6652629862e-02 -1.0021728698e-01 8.7371899238e-02 5.3817556293e-02 6.6815607959e-03 6.7979654513e-02 7.8315027000e-02 -1.6768956533e-01 -2.1663529522e-01 1.6473276660e-01 6.5845079871e-04 1.8867620886e-01 1.6070452179e-01 1.7690067668e-01 -2.0721695749e-02 8.2107276749e-02 -1.9521978103e-01 -1.6022155295e-01 -4.6225523113e-02 -1.9059153088e-01 -2.6051462285e-01 -1.3405874011e-01 1.1081527755e-02 -8.7574811048e-02 1.9442965275e-01 1.1637838051e-01 1.4760743923e-01 1.1246253284e-01 1.2927421528e-01 5.9697223261e-02 3.5624793998e-02 -1.4317245145e-01 3.6041051521e-02 8.4968640088e-02 -3.0896081074e-02 -2.5692098298e-01 -6.9331002075e-02 1.9242248613e-02 1.9316572526e-01 1.6482128128e-01 -5.0592524387e-02 1.1648134912e-01 -1.7340690640e-01 1.3518435217e-01 -4.1605781223e-02 8.4443636574e-02 -1.4693839601e-01 3.6075077646e-02 5.2348603691e-02 -1.1867735453e-01 -7.8124416365e-02 2.0478369454e-03 -2.0510539917e-01 -1.7925143170e-02 1.3800060330e-01 1.1390591147e-01 1.2791906968e-01 1.5305974216e-02 -7.1129626772e-02 4.3270291708e-02 -8.0595284381e-02 -3.0299197289e-02 -8.6529879187e-02 -1.2385775397e-02 4.8490309237e-02 -7.6009186097e-02 -1.3123223922e-01 -8.6689148092e-03 -4.5508339638e-02 6.7867197459e-02 1.7305866145e-01 -2.7536480445e-02 6.4210576006e-02 