2.9048228958e-01 -7.1026562453e-01 4.2808861505e-01 5.2474865519e-02 3.1540363169e-01 -5.5455087779e-03 -2.0844938086e-01 2.8127817691e-01 -3.1540362595e-01 -6.1829813331e-01 -1.0403681632e-01 4.5344089009e-01 1.1175471534e-01 2.6072516813e-01 -9.6961028205e-01 -6.7347587635e-01 -4.0492374759e-01 3.7169594052e-03 -2.0686704344e-01 -3.3549186011e-02 -2.6081216051e-01 1.8278605652e-01 -2.9391525810e-01 1.1012543590e-02 -1.8308161959e-01 3.1653911251e-01 2.9391524899e-01 -3.7073323039e-01 9.3048560386e-01 1.4436108205e+00 -2.3844761766e-01 -4.3032383386e-01 5.8536495136e-01 7.4905077469e-01 -3.2757278484e-01 5.2359673021e-01 5.4858796813e-01 -1.1404220067e+00 1.0754853106e-01 -2.0602755866e-01 8.5946638588e-01 2.0686255448e-01 5.5694602645e-01 2.0602756063e-01 4.9188229167e-01 2.1469885990e-02 -2.7312589701e-01 5.9525654771e-03 -1.0288509693e-01 -7.3365593596e-02 1.4161706762e-01 6.9789602292e-01 5.3081305257e-02 5.1052722572e-02 3.2119962653e-01 2.9798890183e-01 1.5702032819e-01 -3.8042599311e-02 2.2805140076e-01 -2.9798890422e-01 -1.6530903025e-01 -2.0387243973e-01 1.0819465779e-01 4.1628624379e-01 5.9991205994e-01 -4.9910857799e-01 1.2559134649e-01 -1.5888858057e-01 2.4454650080e-01 -5.1750017809e-01 2.5780856496e-01 -1.8355555104e-01 2.6374609236e-01 -1.6746353310e-01 -2.5780855975e-01 -2.7382391238e-02 -7.1160869584e-01 -3.0810014321e-01 3.3067417026e-01 3.9283385564e-01 7.7402602063e-01 5.1078461530e-01 -3.2716095717e-01 9.2972234302e-01 -1.4511301491e-01 -3.5955256469e-01 -5.4467873133e-02 -5.9912868328e-01 -1.2428407825e+00 -8.0959698586e-02 -1.4775304408e-01 1.1034799491e-01 3.2844660093e-01 5.0507698880e-01 -1.8348792850e-01 1.8073919841e-01 2.3585555815e-02 2.3106927621e-01 -4.2707372981e-01 7.9587586643e-02 4.6704740412e-01 3.5955255637e-01 -8.8161253465e-02 -1.8289195209e-01 -1.2469355128e-01 -9.2749238917e-03 -1.6587975654e-01 -6.9420695291e-01 4.9525164207e-02 7.3392698703e-01 -8.5160920742e-02 9.6005434221e-02 1.4927093442e-01 5.4467871508e-02 2.1083662374e-01 -9.5089831514e-01 -8.5225129444e-01 4.5443158045e-01 -2.6011812596e-02 -6.0924829739e-02 1.0853756468e+00 1.7725076435e-02 9.6901734573e-01 -1.5024326135e-01 5.9912870445e-01 2.3787618555e-01 1.3345684113e-01 -2.1295284140e-01 -3.1033337484e-01 -5.9084798055e-01 -6.1529207274e-01 -8.8597929413e-02 6.4334093190e-02 -1.7239129909e-01 4.3390404102e-01 8.0959702919e-02 1.4775304673e-01 -1.1034799830e-01 -3.2844659186e-01 -5.0507698308e-01 1.8348791172e-01 -1.8073920238e-01 -2.3585555838e-02 -2.3106928187e-01 4.2707372024e-01 -1.4997603133e-01 -3.8437431378e-01 1.1810102625e-01 -2.9335543840e-02 -1.9412337042e-02 6.4703900731e-01 1.3121024163e+00 6.2710909329e-02 -3.2820222030e-02 3.4703937163e-01 -6.8816459750e-01 -1.9578699293e-01 -1.8635725243e-01 -4.4867757068e-01 -4.3929798970e-01 2.1580076088e-02 3.1927477541e-01 -2.1693496871e-01 8.3047714360e-02 1.7664136749e-01 -3.6511270271e-01 -7.6475804434e-02 -9.5931500755e-01 1.4816684045e-02 4.9131026820e-01 6.1453113799e-01 -7.1143227636e-01 2.3730534704e-01 8.4118583157e-02 -6.8784855074e-01 1.3072642599e-01 2.6254796805e-01 8.9533052429e-02 3.3127390863e-01 -6.4973141845e-01 -4.8797388570e-02 -4.7831925751e-01 2.2585473772e-02 -6.1822443485e-01 2.3953635309e-01 7.3235373954e-01 1.8418297119e-01 -7.9011753179e-02 -1.4371894631e-01 -9.9417328882e-02 -5.3907192567e-01 -1.1024548839e-01 -1.0027817338e-01 -4.7504828538e-01 -1.4081740126e-01 -9.0412879209e-02 7.7074461990e-01 9.3754183492e-02 2.0040255080e-01 9.0412875483e-02 5.0299684447e-01 -2.6341286304e-01 -9.9209975903e-02 1.0676618285e-01 -2.0815933032e-02 -6.2025993520e-03 1.1810084045e-01 5.5613620471e-01 2.4880451386e-02 -2.7795736123e-02 