6.3838717951e-02 -1.5772949101e-01 -1.3647819164e-01 1.7650468225e-01 -2.7567822821e-01 -3.3494220768e-03 1.1909709476e-01 -1.7822301588e-01 -3.6721778005e-02 2.3598632568e-01 4.4150684105e-02 2.3306327522e-01 -1.7520936649e-01 -3.1178766672e-01 1.0249461065e-01 -3.1446363503e-02 2.9885425582e-01 4.1507098020e-02 2.9111620064e-01 -3.4221941416e-01 -3.3301845086e-02 -8.5012745016e-02 -1.0906760868e-01 1.6502960627e-01 -2.3038588039e-01 -5.7188236208e-02 -3.2791678554e-01 1.9782339322e-02 -1.5402614709e-01 1.3268475257e-02 -1.6523019953e-01 -6.2766511069e-02 -3.1107779776e-01 -4.1973117027e-02 -1.1183107526e-01 9.7294988381e-02 7.5596152514e-02 -4.0220548959e-02 -9.2271449752e-02 1.8186882163e-01 1.5312426999e-01 -9.8895488643e-02 4.6456877778e-02 2.9129850452e-02 -2.4736966949e-01 -1.0179752939e-01 2.4955902460e-01 1.4953918106e-01 9.1924073315e-02 2.3565501529e-01 -1.2766740343e-01 6.0504811335e-02 -8.1778181043e-03 1.4322778905e-02 -3.8245068411e-02 9.2569705688e-02 -2.8045302419e-01 2.5776489404e-01 3.7368294179e-02 2.4428726266e-01 4.7677818005e-02 1.3898537545e-03 -4.1580569118e-02 -1.7206063794e-01 -4.8710001579e-02 2.8645016521e-01 -1.8453954439e-01 -7.3653096151e-02 -1.1809992740e-01 -5.6297010424e-02 -2.0439010025e-01 2.6997815574e-01 -1.0361317637e-01 -1.9595030622e-01 -1.3912531596e-01 -7.1446867073e-02 -3.4182174179e-01 7.8802986660e-02 8.3376473519e-03 6.6594033616e-02 1.5791303917e-01 -2.1367551292e-02 2.8783355916e-02 2.2517762453e-01 2.2481669530e-02 -1.6117577813e-02 -9.2131639895e-02 -2.1672803133e-02 1.9906060194e-01 2.8098556659e-03 3.6687900962e-01 -4.1724344713e-01 1.5217127337e-01 2.3637579481e-01 2.1495710340e-01 -8.8487640899e-02 -5.8522393492e-02 -1.3890091967e-01 -1.2748188131e-01 -1.0491506213e-01 2.7221530285e-01 -2.2307873298e-01 5.6282284171e-03 -2.1775229761e-01 2.1498839807e-01 2.3505761804e-01 -4.7622315992e-02 -2.8879463377e-01 -9.6363922921e-02 -8.5861815858e-02 4.5421894369e-02 6.2398142727e-02 -1.4015995829e-01 1.2640709432e-01 1.7905590625e-01 -3.2445424805e-01 -8.4644923466e-02 -8.0181670008e-02 -2.4927940197e-02 1.2757667529e-01 -1.2592048316e-01 2.8683024519e-01 1.5260525178e-01 -1.0023158320e-02 -2.2284293960e-01 1.0257072347e-02 2.6921380831e-01 -3.5153710462e-02 -2.5356959380e-01 9.4482140329e-03 -1.6757929935e-01 4.0669986459e-02 -1.4795079317e-01 4.2343907530e-02 -4.8783223772e-02 -1.9502245829e-01 -9.1536937438e-02 -6.3283109454e-02 1.1447287645e-01 3.2844425311e-01 -5.8316293992e-02 9.3021672736e-02 -6.9760185347e-02 -3.8083005853e-01 -2.7285553521e-01 -5.2677316404e-02 -4.7782864524e-02 -1.5323950927e-01 -1.9358613919e-01 -2.1150461013e-01 -8.2960505904e-03 2.4043715157e-01 -2.7668658988e-02 1.5723946365e-01 -1.7669694770e-01 2.8391058641e-01 5.2399975769e-02 -5.8204476895e-02 -1.2022880065e-01 2.0915455915e-01 -1.6226096312e-01 7.0218389226e-02 2.5811676508e-01 -2.9056270135e-02 -7.3012939694e-02 1.0968369279e-03 -4.8089286615e-02 -5.1328286997e-02 1.3937971352e-01 -1.3756080474e-02 1.9485869290e-01 3.2739215281e-02 -2.9195600071e-01 -1.0531104927e-01 1.9249367105e-03 1.9724335294e-01 1.8272462862e-01 -2.5288870766e-01 7.7169262304e-02 -9.2443892664e-02 7.1382174368e-02 -2.5699887264e-02 7.5921955668e-02 -1.1988718126e-01 8.7324283253e-02 7.3843488297e-02 1.7294928401e-01 -2.0859950328e-01 2.7551809846e-01 1.3985349886e-01 -2.7070482413e-02 -2.3864801697e-01 -1.2521864206e-01 1.1823385539e-01 7.1176802440e-02 -2.1276150616e-01 -7.0003812862e-02 -1.0523561094e-01 1.4523956926e-01 5.7208843310e-02 3.8735814148e-02 -2.7200120088e-01 3.2814645835e-02 -2.2722356769e-01 1.7930972918e-01 -3.2549061305e-01 1.5011547374e-01 2.1745118439e-02 -1.0374628706e-01 -7.4439066151e-02 