1.2267575829e-01 -1.3928882937e-01 5.5345700338e-02 3.0236957803e-04 4.1280581842e-02 -9.2931351137e-02 -2.6801418905e-01 1.9606501024e-04 3.4158933587e-02 2.7590809771e-02 -1.9487689182e-02 2.6431980590e-02 3.3432772002e-02 -9.5692017129e-02 7.4972905774e-03 -2.4469177403e-01 -2.1756741449e-01 1.8923140376e-02 -9.6127774251e-02 -2.0054826869e-01 -1.9502719772e-02 3.2741888780e-01 -3.8806210591e-01 -7.4070614778e-02 3.8860548155e-01 -3.0070590522e-01 -1.9138491981e-01 -2.2024310228e-01 2.0986344680e-01 2.1985035073e-02 1.2546569064e-01 3.3284584657e-01 5.2356562647e-02 -1.4427393133e-01 -2.1468098619e-01 4.4108084200e-02 -2.0211795378e-01 -1.0563197217e-01 -2.7323861257e-01 3.0477369569e-01 -2.6712588402e-01 -2.2257040085e-01 -1.4125932372e-01 2.3764438422e-01 1.1307818090e-01 -1.4507109268e-01 -3.7381351448e-02 1.6263554920e-01 -6.5530713969e-02 -1.1156054842e-02 -2.2896489743e-01 4.4246799020e-01 -3.6364522227e-01 -3.1891740506e-01 2.2723761645e-01 -1.5688607374e-01 1.2990695090e-01 1.6350905106e-02 -5.6088221104e-01 -2.8211653968e-01 -1.9632147098e-01 -1.1911359049e-01 -2.2934299536e-01 -2.7105513285e-01 -2.7554305022e-01 2.6729453282e-01 -4.8531607810e-02 -4.0477080068e-03 3.3982267334e-01 1.3158266388e-01 6.1852426137e-02 1.0809409243e-01 1.5702249943e-01 -2.4597181397e-01 -1.4167628888e-01 1.4831000723e-02 1.8479690109e-01 2.2754005414e-01 -2.0982816094e-02 -5.9523630394e-02 -5.2863336000e-02 1.9507289843e-01 2.5635290396e-01 -1.6645668809e-01 -2.0993095074e-02 1.1311055856e-01 -1.2380010960e-01 -2.2759274524e-01 2.2795581570e-01 -2.9383078895e-01 -3.4546766288e-01 1.5997620310e-01 -1.8263498101e-02 1.6183388250e-02 1.0938822111e-01 1.4592173645e-01 1.5042858767e-01 1.2672981539e-01 -2.0243608059e-01 1.2969441958e-01 -9.8700267806e-03 -1.1780955783e-01 -5.0952116409e-01 -1.3827612227e-02 -2.0797376092e-03 -2.1455485081e-01 1.1984646163e-01 2.8682008689e-01 3.5244251908e-01 -1.9108326721e-01 -1.2302307840e-02 -2.6243458359e-01 3.7560584851e-02 -1.8631840736e-01 6.4943319936e-02 2.0817013726e-01 -2.7054366786e-01 -2.3795133286e-01 4.3662036219e-02 -1.3577088490e-01 5.1052908271e-02 -1.5415393460e-01 -9.3531252144e-02 -8.1851204366e-02 -1.9186938012e-02 -9.9144037932e-02 -1.9168484168e-01 2.4017919031e-01 2.0326421345e-01 2.9385536867e-02 1.0499668143e-01 2.2393036939e-01 -5.9346556923e-02 3.0916790493e-02 -1.8239063802e-01 7.5643701560e-02 -1.1225337380e-01 2.3947302689e-01 2.4127858297e-01 1.8789159932e-01 8.0702625442e-02 -3.1425383147e-01 -1.9329458684e-01 -1.9276134411e-01 -4.0942068674e-01 -3.3267364548e-01 2.5300947177e-01 3.0807336892e-01 1.5969938616e-01 1.0219854854e-01 1.0113721850e-02 -1.8733733558e-01 -5.0185990935e-03 1.1132708592e-01 6.1519158694e-02 -6.9343019334e-02 1.8075723869e-01 1.6377816182e-01 2.2980574794e-01 -1.9496721660e-01 -2.1565572076e-01 -3.1568637120e-01 -1.2695801474e-01 -3.6847672111e-02 2.5969645780e-01 4.6137917622e-01 -5.6975764460e-02 -1.3304149955e-01 -4.1301232366e-03 3.2180749517e-02 -2.3861795950e-01 -2.0118727978e-01 1.1148069719e-01 1.6578351749e-01 1.4613078841e-01 2.6188527112e-01 2.6244421220e-01 4.2158173353e-02 -1.1248785425e-01 -1.6873574680e-01 -4.3020792776e-02 -3.8951360016e-02 1.0971073300e-01 -4.8744706304e-02 6.4455185424e-02 -2.3623045600e-01 6.6695824436e-02 -2.3566869585e-01 -2.2764045111e-01 6.3193712465e-02 3.0234143319e-02 -1.5631494884e-01 -2.4082806253e-02 1.3073586871e-01 8.9706532943e-02 1.4964722456e-01 -2.9168048432e-02 -1.7850967853e-01 -4.6582752111e-02 -3.1683867156e-01 2.9733033174e-01 -1.5621995959e-01 9.7525537851e-02 -2.7357680085e-01 -2.0406896985e-01 8.0656775173e-02 4.6049767769e-02 -1.4191121822e-02 1.5351663888e-01 1.8290209398e-01 