-2.3754059089e-01 -7.8595843464e-02 -2.9921187307e-02 -7.8595817017e-02 6.9079791972e-02 -1.9172105223e-01 7.8626850833e-01 2.8700001370e-01 -3.2847088852e-01 -9.7386726803e-02 -5.4914201460e-02 1.1875248723e-01 6.9619859715e-02 5.2259269806e-02 -7.0639687381e-01 -1.0410269159e-01 -6.0645903016e-01 1.0652053751e-02 -4.8856510293e-01 -2.9314990706e-02 -7.9681808301e-02 -2.9314708359e-02 -3.4960386910e-01 8.1828818354e-02 -2.2150968765e-01 -1.8965112785e-01 5.6635240237e-01 4.2548342291e-01 3.3599409930e-01 -4.6789822572e-01 6.6838769781e-02 -4.7597516093e-01 1.2638449657e-01 3.0263468620e-01 2.3354885501e-01 -1.6308260777e-01 5.0890312453e-01 5.9768906945e-01 1.2707972464e+00 2.3272362951e-01 7.1789141347e-01 -1.6934459604e-01 -3.6092096853e-01 1.5328629165e-03 -1.5835968959e-01 3.9525676428e-01 9.8885735701e-02 3.8665211469e-02 3.6736348973e-01 1.7976815329e-01 -2.0117128393e-02 1.3165901068e-01 3.3791773694e-01 3.4379566431e-02 5.9768902854e-01 -2.0399045984e-02 5.9052243531e-01 -1.1312182166e-01 -8.5385496367e-01 -4.7507699701e-02 1.1048153979e-01 -1.1079410596e-01 -3.7840386439e-01 -3.3338244139e-01 4.7552950907e-01 1.6093678357e-01 -3.5811591148e-01 8.7041564656e-02 3.7956322069e-01 -1.5172851691e-02 2.3272374672e-01 7.1789138762e-01 -1.6934463448e-01 -3.6092103672e-01 1.5323876774e-03 -1.5835968487e-01 3.9525677733e-01 9.8885491847e-02 3.8665219893e-02 3.6736349780e-01 1.7976817117e-01 -2.0117139530e-02 1.3165890869e-01 3.3791773906e-01 3.4379632267e-02 9.1393246280e-02 2.5958425397e-02 -1.8503476551e-01 -2.7879014181e-01 -9.4144470648e-01 -1.1404689361e-01 6.1595141031e-01 -3.4359355866e-01 -1.3641723096e-01 1.1759644404e-01 1.3739314243e-01 -2.9290897758e-01 4.2380237922e-02 -2.6569904991e-01 -2.8644065716e-01 -6.5355693927e-01 1.1155067178e-01 -4.4202976242e-02 6.3278168228e-02 -2.2740586950e-02 -4.6406727292e-01 2.2112102593e-01 -2.2626730782e-01 -1.4303261461e-01 2.8183531361e-01 3.5081064282e-01 1.4747802687e-01 4.3675255236e-01 -3.0314649073e-01 -5.5080042854e-02 3.1542617650e-04 7.9412703414e-02 1.6682858703e-01 2.6628769087e-02 -2.1012296683e-01 -5.0251799736e-02 -4.7551726668e-01 -1.3435720923e-01 -4.2565077676e-01 -2.1954302068e-01 1.4122407613e-01 3.5167047569e-02 -9.6247653437e-02 5.7548517256e-01 -1.5739865884e-01 -8.8794653083e-02 3.3838283284e-02 -5.2008264000e-02 1.6289323143e-01 -2.3190725326e-01 3.4489375491e-01 2.6739240792e-01 -3.8258318087e-01 3.0094973935e-02 -3.9006275606e-01 2.1017090288e-01 2.5739115720e-01 3.8479677790e-01 -1.2515172127e-01 2.6152418746e-01 3.5980852119e-01 -7.3381339611e-01 -1.7134715049e-01 -1.3476133058e-01 -7.3967164869e-02 6.4922562252e-02 3.4516030472e-01 3.2950740880e-01 3.2705890978e-01 -4.0465572441e-01 6.3149997084e-01 -3.5016939421e-01 -1.0738575212e-01 8.7077670574e-01 3.4239019052e-01 -3.2993876152e-01 2.5398560286e-01 -6.2044099801e-02 2.7437196159e-01 3.2241508739e-02 -1.2243805774e-01 -3.8640146106e-01 -7.6979949778e-02 -3.6330238974e-01 1.5329075495e-01 -1.5211545886e-02 4.0413172153e-01 1.8065899988e-01 -5.7091940039e-01 1.9289819208e-02 -5.1725970443e-01 -1.7089433020e-02 -9.1523804126e-02 -3.0510461216e-01 -3.2618836525e-01 -1.5429852338e-01 3.9732925197e-01 6.2255247104e-01 3.3493266290e-01 2.8928667373e-02 -7.7285731634e-01 2.2222736959e-01 6.4310296906e-02 -1.7770682971e-01 -8.5127321146e-02 3.5265192344e-01 -1.6312860970e-01 1.3994404581e-02 6.1678499448e-02 1.3994336464e-02 1.9558651731e-02 -8.5938351833e-02 2.5138748934e-01 1.6081045697e-01 -2.4773100225e-01 -4.2847833331e-02 -1.2950083483e-02 6.2388998087e-02 -1.1133037205e-02 1.1389745079e-02 -2.0576442963e-01 -1.0488713080e-01 -4.3388143575e-01 9.3917675423e-02 -3.7539530455e-01 