-1.8394451734e-01 -8.8874147730e-02 5.3654286669e-01 -2.9070697108e-01 2.4997950877e-01 -3.2415037428e-01 -6.8573674996e-03 -1.8102600998e-01 -5.6565942727e-02 8.3241177969e-02 -2.0577886611e-02 -1.7228124459e-02 -2.7088050339e-02 2.3277642715e-01 -3.2026319336e-01 9.7845480895e-02 3.1918001426e-01 2.0528573511e-03 -2.1705490375e-01 5.3306361605e-01 -1.6795214458e-01 2.5249276483e-01 -1.1993465672e-01 6.3884017288e-02 1.6245870136e-01 -2.5974178858e-01 4.7549482514e-01 -4.8347931662e-01 -8.6241824212e-02 -8.6714780532e-02 -6.5363075773e-03 1.4625169341e-01 5.1382773261e-02 1.9085287814e-01 2.3728305336e-01 -7.5931464482e-02 -2.9692139601e-01 3.2337352475e-01 -3.5833708899e-01 1.1079695359e-01 -1.6858901239e-02 -6.0019088984e-02 2.2760709670e-01 1.9126377835e-01 -2.4914049048e-01 -4.9842729852e-01 -5.2322577157e-01 9.5305702610e-02 3.0611329408e-01 -2.4654321028e-01 -3.1116216292e-01 3.0012617306e-01 -6.3095915571e-01 -3.2818881358e-03 -3.3532425295e-02 3.4162231922e-02 -8.7853187432e-02 4.2259168072e-01 -1.2941227484e-01 -2.0247136000e-01 1.2670980117e-01 -2.9135096537e-01 2.4482997233e-01 -4.4923817277e-01 3.2124331195e-01 6.5752034866e-02 -2.0731541204e-01 3.1043152637e-01 2.0387269155e-01 -2.0821257025e-01 -3.9165649524e-01 5.6188171530e-01 2.2725595934e-01 -3.0052063754e-02 8.4280195886e-02 -1.0596329542e-01 -6.9923601905e-02 9.9182007755e-02 7.1591041870e-02 -4.3831394470e-01 3.6711762181e-01 -1.4994661381e-01 7.8962262859e-02 1.8784452807e-01 -2.4108290208e-01 -1.1900188919e-01 2.9709063585e-01 2.2867239750e-01 -5.6412575899e-02 -2.1399723821e-01 -2.2146223170e-01 -3.1975942214e-01 2.8313237117e-01 3.1373647059e-01 3.7137730281e-02 1.5100940883e-01 2.6743778119e-01 1.7727145194e-01 3.9149041273e-01 2.2498004885e-01 -1.4999582210e-01 -1.1673231902e-01 -8.7056149152e-02 -1.2843662204e-01 -1.4996070210e-01 4.0662288128e-02 -5.7627162540e-01 4.0621111981e-01 -3.1230421777e-01 -3.0814350927e-02 -2.3125685726e-01 -1.9202939329e-01 -2.5924410350e-01 -1.7683737870e-01 3.2787027986e-01 1.5100552746e-01 -2.2723028292e-01 -1.5403879369e-02 -1.6050650068e-01 1.2310041321e-01 6.9952956943e-02 -9.4971655556e-02 2.8244335563e-02 -4.6256247272e-02 -4.7234973662e-01 -2.1459480221e-01 -4.4168433705e-01 8.3449197468e-02 5.4504743779e-01 -1.5665097208e-01 2.2082777184e-01 -1.0955204251e-01 -2.1062051050e-01 -1.6577635486e-01 5.2862614119e-01 -2.6638173954e-01 1.2912201024e-01 3.1382026510e-01 7.9478757562e-03 1.4083643186e-01 3.0326999395e-01 -1.6547463847e-01 -2.7251129638e-02 -2.0548284299e-01 2.9216453855e-01 -9.3657206301e-02 -2.8203103853e-01 -2.0528950792e-01 -9.8079820138e-02 6.5061417428e-02 -6.1793553982e-01 9.1184585473e-02 1.5901382044e-01 -1.0793593032e-01 8.6192848431e-02 -2.4372839952e-01 2.1538995081e-01 -2.7829917891e-01 7.0330417218e-01 4.0011385476e-01 1.1463138626e-01 2.5763943169e-01 -4.8857275318e-02 -1.0441656348e-01 -1.5822864555e-02 -4.2262437652e-01 -2.0476477420e-01 -1.9509788739e-01 2.8820962471e-01 -3.1144245180e-01 3.4024810772e-01 3.8363303609e-02 -8.0677326366e-02 1.5302548338e-01 1.6642347994e-01 -1.4904638296e-02 -3.1276606285e-02 3.2507809468e-01 -3.2906198753e-01 3.7559035307e-01 -1.2875459405e-01 -4.0072007874e-01 1.3927892093e-01 -1.6246140402e-01 -1.6965499611e-01 2.8142329727e-01 7.3176564190e-02 -2.2429343241e-01 -6.8904854129e-02 -3.1602249816e-01 -1.7610603265e-01 1.2118773975e-02 1.7263766783e-01 -1.7936579440e-01 -2.2388510397e-02 3.7748075813e-02 4.1956068066e-02 -2.2588623504e-01 3.7993110889e-01 1.2980109859e-01 -8.8344309775e-02 -1.4856050326e-01 1.6741211822e-01 -5.7956649263e-03 -8.9759686058e-02 1.9883919617e-01 -1.6848647446e-01 -2.5489762107e-01 -1.6691765329e-02 1.4125641989e-01 