6.0540949231e-02 5.4330590981e-02 1.2181817164e-01 -1.0321614782e-01 -4.0266608961e-02 2.8857598600e-02 -9.7402214081e-02 -2.8060869752e-02 8.2148810081e-02 -1.9511291836e-02 -5.6845722053e-02 4.1885649091e-02 -1.3505782095e-02 2.6069565106e-03 -5.4518599178e-02 1.6568632954e-01 -8.6854698453e-02 -6.8590679727e-03 2.4775457621e-02 8.7318964385e-02 5.3771938886e-02 -6.7489089994e-03 -3.1608015754e-02 -7.8098064473e-02 4.2665148144e-02 6.7747933733e-02 -6.5757945106e-02 -6.1608998535e-02 6.4512488070e-02 -1.8763450256e-02 3.6918303795e-02 -4.7165403367e-02 2.9589069115e-02 -1.0947542611e-01 5.8851515250e-02 -4.2827469726e-02 -4.1313371265e-02 -5.3530350751e-02 -1.9871525574e-02 1.6751129859e-02 -1.7322138854e-02 -2.1326086541e-01 3.8434370441e-03 -7.9602212416e-02 2.4679765218e-02 2.3342980291e-02 -1.3383880253e-02 3.8545639890e-02 -7.0406552590e-02 4.4125278142e-02 -1.2441582244e-01 -4.4658354411e-03 1.2457273940e-01 -9.5530869925e-02 8.0156564539e-02 -8.8853244957e-02 9.5760836554e-03 -6.6596276166e-02 -8.8549165087e-02 -9.0049116341e-04 -9.4262505473e-02 1.7414060891e-02 -9.4702550820e-03 -7.2039966224e-02 6.4019405999e-02 1.5604763800e-01 -3.5787233846e-02 -1.6123978360e-03 -1.5397951104e-02 -5.9394289519e-02 8.8595419129e-02 2.0654089899e-02 1.3482419769e-01 -3.8914533605e-02 9.4476716582e-02 -6.8387962704e-02 1.4046296571e-03 3.4873583373e-02 -2.7818580604e-03 -5.7707180655e-02 7.3664454772e-02 -5.2869731075e-02 -5.0019614905e-02 3.9206356368e-02 -1.0970441457e-01 -1.9643530046e-02 -1.1525232339e-01 1.2755994921e-01 -3.8054033958e-02 -2.0216944554e-04 -4.7935160236e-02 1.0554758293e-02 1.5286532372e-02 2.9147857408e-02 -4.2409841895e-02 -1.4907662549e-01 9.9128874389e-02 -7.4143410049e-02 -1.9143319725e-02 4.3974350402e-02 3.8763474349e-04 1.9403043639e-02 -2.6618620744e-02 -4.9170644146e-02 3.5436077244e-02 6.5582462452e-02 -6.8758175656e-02 -8.7489176903e-02 -1.3720276594e-01 -1.1377617231e-01 2.2485400929e-02 6.1919700136e-02 -3.0601653743e-03 4.9383405412e-02 -1.9982974536e-02 -7.1176205719e-03 8.9294855089e-03 6.1159103088e-02 -1.0175869199e-01 -1.4144962201e-02 -5.0461192797e-03 4.1372244140e-02 -4.8633452872e-02 6.1803813204e-02 8.5676372915e-02 1.6176203157e-01 -6.8917376531e-02 -8.6909260643e-02 1.4488577436e-01 2.2273752467e-02 -7.7973553135e-02 -1.0046821676e-01 7.9511368847e-02 -4.4165600979e-04 2.7301718104e-02 -2.8553792537e-02 7.1570750709e-02 2.7925625658e-02 9.9430616565e-02 1.1092458939e-01 -5.8820347765e-03 -3.7215026178e-02 -5.2084033306e-02 -1.0620184256e-01 3.8697351364e-03 1.9801171948e-02 -5.3675872633e-02 3.6378523195e-02 7.5959111724e-02 5.2878018213e-02 -4.9013920428e-02 -7.6875131941e-02 1.4234489795e-01 -3.9509077141e-02 3.7585773950e-02 4.3546828734e-02 -3.7883995251e-02 4.8039053805e-03 1.9996397983e-02 -7.1831228241e-02 1.0888687413e-01 3.0765689621e-02 -3.6901085576e-02 1.1072779161e-01 -1.1463110157e-01 -2.2196086053e-02 3.5190528287e-02 5.5987877332e-02 -2.8671612609e-02 -2.4188543867e-03 -2.6492242518e-02 -1.8440200807e-02 -3.6182067550e-02 1.3737033385e-01 -5.0893336793e-02 -7.1443740311e-03 3.3474718728e-02 -9.4268932271e-02 -3.5630827896e-02 -5.7416421242e-02 -1.1144637801e-01 -1.1297642042e-02 8.9419401779e-02 -1.9751775153e-02 -8.6653297962e-02 3.4184042647e-02 -7.8217922762e-04 -1.0538420687e-01 8.2726906628e-03 -7.3275317492e-02 -3.4531688350e-02 1.9976336719e-03 2.0891900641e-02 -4.0961126032e-02 -5.3226657088e-02 4.7274188439e-03 -4.8123267281e-02 7.4912727816e-02 1.0593648969e-01 -1.8075770087e-02 8.4408824485e-02 -1.4523689956e-01 -1.0236039103e-03 3.7350418904e-02 1.9627089230e-02 1.0544112783e-01 -5.2737913172e-02 -1.7925857660e-02 -3.2957920394e-02 -3.5492010133e-02 