1.5390561523e-01 -5.2338852066e-01 1.9822439446e-01 -1.2001455459e+00 3.2956044652e-01 4.3485424018e-01 1.1305350163e+00 -3.0419389901e-02 4.2292487553e-01 -7.8693874739e-01 -5.0766640346e-02 3.2040651510e-01 -1.2001553421e+00 4.0014437920e-01 1.0466711085e-01 -2.0947941410e-01 1.0020861393e-01 -1.4832742893e-01 3.7756456475e-01 -1.9138735908e+00 -2.1805332036e-01 -1.5389774123e-01 8.3870743255e-01 7.7923971302e-01 -3.5650389246e-01 -1.1847153900e-01 -1.8994591559e-01 -1.8726866969e-01 -3.4000014150e-02 1.0363545495e+00 -1.5392250225e-01 -5.0152871239e-01 3.8583722070e-01 -1.7482192032e-02 1.4490957085e+00 9.3119635920e-01 1.0563789554e-01 7.4187109044e-01 5.2338792414e-01 -2.0233045285e-01 1.0054005334e+00 -3.9937537932e-01 6.5900833515e-01 1.1186035315e-01 5.8918210293e-01 -1.3421905987e+00 -9.5832472159e-01 5.2338198727e-01 -5.5378787093e-01 -4.6841049541e-01 1.5310408168e+00 -6.4913979458e-01 4.8070308134e-01 1.8092735862e-02 -1.9822350581e-01 3.4293545151e-02 6.2645772664e-02 1.0782429736e-01 -6.2139458660e-01 3.5457048131e-01 -4.8229703905e-01 -2.7807060054e-02 7.2882127835e-02 -1.9823373232e-01 1.5582258477e+00 -1.2134396636e+00 -3.8862393070e-01 1.7118893076e+00 -1.7900153297e+00 1.4883014367e+00 -3.2956077269e-01 -4.3485745891e-01 -1.1305345759e+00 3.0421365679e-02 -4.2292845874e-01 7.8693540051e-01 5.0767015422e-02 -3.2040103889e-01 1.2001566153e+00 -4.0014350845e-01 -1.0465995753e-01 2.0947852118e-01 -1.0022362344e-01 1.4833017728e-01 -3.7755919607e-01 1.1612524054e+00 -1.4235874966e-01 1.0921995268e+00 -5.7204948840e-02 -3.2990196867e-01 -3.8742604752e-02 1.1996664158e+00 -3.2955890135e-01 -2.8539675710e-01 3.0623818031e-01 -4.5377736370e-01 7.5935504401e-01 1.7868025819e-01 2.2744875624e-01 -1.7772710349e-02 1.3143958235e+00 -2.2561927975e-02 -4.0062132058e-01 -3.3503291947e-01 9.0926788870e-01 -4.3486016634e-01 2.3522339841e-01 2.8591333884e-01 -1.5155422036e+00 6.8728164707e-01 8.5444413016e-02 2.5358455370e-01 -1.1149713259e-01 -4.1084434773e-01 -6.0896683243e-01 -1.6026280759e+00 -2.6619851831e-01 -1.1305262372e+00 -1.6470684558e+00 -1.0692303055e+00 -3.1084293086e-01 -3.9216381751e-01 2.8723683579e-01 5.0204935667e-01 -1.8350418325e-02 2.4234398287e-01 -1.6965104948e+00 -8.7296256564e-02 3.0424690889e-02 -2.0438715922e+00 -1.1330385897e+00 -6.1089645814e-01 -3.0979276763e-01 1.9406238112e+00 -3.9885627284e-01 -9.9629046418e-01 -5.6233633744e-01 -4.4700097522e-02 -4.2292917517e-01 1.1826265469e-01 -1.2155709311e+00 -1.3482484278e+00 -3.2518647465e-01 8.6190790994e-01 5.6144885756e-01 1.6471644367e+00 -3.4296455180e-01 7.8693645992e-01 -5.3874979803e-01 1.3974145860e-01 -6.5428099088e-02 -1.3359932309e-01 1.6380831988e-01 -7.5371875523e-01 3.8793494352e-02 5.0765453381e-02 2.8395676334e-01 -4.1272699178e-02 -8.3700969300e-01 7.2246147185e-01 1.4247218806e+00 1.3578177973e+00 -3.2039227104e-01 -1.9814912466e+00 2.5997324259e-01 -2.5965545704e-01 1.0185649693e+00 5.1807347226e-01 2.6451036493e-01 -4.0013513191e-01 -1.0466344766e-01 2.0948010824e-01 -1.0019825911e-01 1.4832148258e-01 -3.7755706377e-01 1.7087916367e-01 -3.5144071038e-01 3.7535526267e-01 1.0420634578e-01 5.8825548387e-01 8.2613658373e-02 8.7722748154e-01 -2.5282796060e-01 -2.0159765115e+00 3.3056591093e-02 3.0939270605e-01 -5.6881166239e-01 1.4541786525e+00 -4.5860157327e-01 -5.6238286048e-01 -2.2631809896e-01 5.7065016587e-02 -2.8019470082e-01 -1.0755371831e-01 2.2631632022e-01 1.5758051142e-02 -7.1491141946e-03 1.3231708311e+00 -9.7414068836e-01 -1.1351996453e+00 4.5783897954e-01 -1.1235560170e-01 -4.8701836367e-02 2.2631098800e-01 -3.9556182657e-01 1.1673433327e+00 4.0148821972e-01 5.2311799449e-01 2.7816293074e-01 -1.0474246942e+00 