-1.8611598854e-01 1.2617072866e-02 1.2616695641e-02 -5.1781837408e-02 -7.0103582088e-02 -1.2616502840e-02 -5.4267202672e-01 -6.6575949679e-01 -3.7315833728e-01 1.1016779070e+00 9.5248515644e-02 -7.7735128250e-01 -1.2616883919e-02 -1.9144047011e-01 7.2001163640e-01 2.3372529359e-01 5.1781665522e-02 -1.2509599587e-01 5.1283310362e-01 6.0135749612e-02 6.0135398816e-02 -8.9489043339e-02 -1.7238016036e-01 -6.0135083824e-02 -8.3824853330e-01 -1.0862236517e-01 -7.8066322602e-02 3.5460199988e-01 6.7026386556e-02 -6.4204783438e-01 -6.0135274886e-02 -7.2505363728e-01 5.2097430024e-01 8.5020625689e-01 8.9488692058e-02 -4.3883816858e-02 4.7616423070e-01 5.1566656488e-01 -3.8523411174e-01 -2.2077414895e-01 -5.1566685690e-01 2.9133449238e-01 -2.1668450478e-01 -2.4219453588e-01 1.4190452531e-02 -4.1831085207e-01 -2.8595568923e-01 -5.1566733159e-01 2.2815806294e-02 2.5196286126e-01 -3.5398472708e-02 3.8523410086e-01 3.1239472539e-01 -2.6955360697e-01 -3.8523418006e-01 -2.2077424274e-01 -5.1566718580e-01 2.9133434964e-01 -2.1668453786e-01 -2.4219424287e-01 1.4191124089e-02 -4.1831101552e-01 -2.8595577187e-01 -5.1566678906e-01 2.2815296377e-02 2.5196291277e-01 -3.5398800520e-02 3.8523401617e-01 3.1239503363e-01 -2.6955335409e-01 7.0238356347e-02 3.8523421656e-01 -2.2982068221e-01 1.2148370382e-01 2.9826225714e-01 -4.3443591130e-02 3.0997414576e-01 4.0535560216e-01 3.8523381627e-01 4.0251532768e-03 -4.4930903016e-01 7.4612522693e-03 -7.9007566246e-01 -2.3058435001e-01 2.0443359554e-01 2.2077417206e-01 -1.6317989901e-01 -1.8267273584e-01 -4.5088722388e-01 4.1542047967e-02 4.0271200360e-02 -1.1705799713e-01 2.2077427841e-01 -7.2332631614e-02 -7.1650580835e-01 2.6568468779e-02 -7.0238157535e-02 -3.3188992412e-01 8.2135010170e-01 -2.9133439005e-01 2.1668456315e-01 2.4219447330e-01 -1.4191142430e-02 4.1831099567e-01 2.8595583295e-01 5.1566660901e-01 -2.2815470955e-02 -2.5196312098e-01 3.5398388022e-02 -3.8523379360e-01 -3.1239474451e-01 2.6955357652e-01 2.9584657133e-01 2.1613884788e-01 -3.1728800151e-01 -7.2733390622e-01 -1.3740189632e-01 -2.9133425168e-01 8.0103050761e-01 -2.0906892656e-02 1.4290488014e-01 2.2982093030e-01 3.2643235885e-01 1.2416049054e+00 -2.8370023207e-01 -1.1430448543e-01 -1.8912218978e-01 4.8220732737e-02 2.1668456077e-01 -4.9182525904e-01 3.6108306133e-01 4.1035408779e-01 -1.2148367095e-01 -8.8681839479e-01 2.1444773715e-01 -1.3593777429e+00 1.2471785553e-01 7.5689883484e-01 2.4219480528e-01 3.3939551463e-01 7.2847032967e-01 -3.6299219618e-01 -2.9826202640e-01 -1.4447551730e-01 -4.0116378574e-02 8.7480997711e-02 -1.8913087160e-01 -1.4190396703e-02 -4.0859203362e-01 4.5277376697e-01 4.4119677737e-01 4.3444042610e-02 -7.2644286256e-02 2.3112364242e-01 2.0853063091e-01 4.1831090435e-01 -2.3946468889e-01 -1.7065017167e-01 3.9396185843e-01 -3.0997414678e-01 -1.6189257923e-01 -8.3734413616e-02 2.8595578512e-01 3.9677287614e-02 2.2848474092e-01 -3.7279918805e-02 -4.0535565704e-01 -1.7541106142e-01 1.3403556848e-01 -2.2815855259e-02 -2.5196319409e-01 3.5398262962e-02 -3.8523415962e-01 -3.1239476709e-01 2.6955338247e-01 -2.1392577434e-01 -1.0924484279e+00 -4.0256828000e-03 1.5176053688e-01 -2.9404961394e-01 2.0625415109e-01 4.4930902649e-01 1.1932733110e-01 1.8609521910e-02 -7.4612531462e-03 -1.4250466356e-01 7.2059477711e-01 2.3058454909e-01 -2.0443390012e-01 -7.6557405186e-01 2.0357613939e-01 -2.3101093300e-01 -1.7413897426e-01 -1.7413886157e-01 2.9755874630e-01 5.8394224742e-01 1.7413890811e-01 -7.6293002028e-02 -1.9550329755e-01 -1.2507248866e-02 -1.1470409853e-01 1.1142829337e-01 1.9914487668e-01 1.7413890872e-01 2.9092160809e-02 -4.9045565464e-01 -2.9003814154e-02 -2.9755877134e-01 -5.6023256485e-02 -1.6103411070e-02 