8.5608582039e-01 4.1407922519e-01 -3.7758336121e-03 2.8032189378e-02 -3.6606768632e-01 5.2435329741e-01 -1.6047917742e-01 9.0138929155e-02 2.4145742155e-01 1.6047939703e-01 -1.0529670838e-01 9.0138786311e-02 1.6047938187e-01 1.6047915865e-01 5.5570654837e-02 1.2128598683e-02 -1.6047913904e-01 2.4145747631e-01 -9.0138779401e-02 -1.5712545415e-01 6.0221071320e-02 -2.4932006172e-02 -2.9599284404e-01 4.1374534628e-01 -1.1502923177e-01 4.5488194606e-02 1.9003775829e-01 1.1502921961e-01 -2.0109234838e-01 4.5488132430e-02 1.1502914615e-01 1.1502904476e-01 1.5259589561e-01 8.3307161227e-02 -1.1502923377e-01 1.9003765036e-01 -4.5488145836e-02 2.8634245660e-01 -1.4833627106e-01 -1.7118663260e-01 2.3250893523e-01 -5.0936377896e-02 -1.5568557363e-02 1.0693820691e-01 5.0936335747e-02 3.3813261798e-01 -1.5568331305e-02 5.0936504291e-02 5.0936367937e-02 5.8483643769e-01 3.1008191260e-01 -5.0936326253e-02 1.0693833829e-01 1.5568397791e-02 -9.0178459882e-01 6.5621556500e-02 -4.1137820777e-02 1.5167178185e-01 -2.8407145533e-01 -1.0098359053e-01 -1.5167170827e-01 7.4120128494e-02 -2.8407165861e-01 -1.5167178466e-01 -1.5167188420e-01 -1.0432392453e-02 1.3176603627e-01 1.5167194158e-01 -1.0098347304e-01 2.8407168430e-01 -8.6988723444e-02 6.3224992631e-02 -1.7191335931e-01 3.0934927072e-01 1.2167250260e-01 1.7191333416e-01 -7.6534187744e-03 3.0934950517e-01 1.7191340019e-01 1.7191331316e-01 -1.3161507770e-01 -2.4320145556e-01 -1.7191330219e-01 1.2167248453e-01 -3.0934939328e-01 -5.2131949954e-01 2.3050723372e-01 -1.4879313784e-01 -3.6596842248e-01 -2.3050712536e-01 3.0398129154e-03 -1.4879316441e-01 -2.3050724362e-01 -2.3050704267e-01 8.4204762921e-04 4.3781760128e-02 2.3050730625e-01 -3.6596848250e-01 1.4879308898e-01 -2.0159645045e-01 1.2483974446e-01 3.0710152190e-01 2.0159638741e-01 -3.6761340564e-02 1.2483984643e-01 2.0159628124e-01 2.0159668022e-01 2.1954720772e-02 -2.1089996224e-02 -2.0159650136e-01 3.0710142137e-01 -1.2483982535e-01 -2.3799685065e-01 -2.7635252860e-01 -3.6514536500e-01 -9.6424481726e-02 -2.3799684148e-01 -3.6514509161e-01 -3.6514490883e-01 7.6231146765e-02 1.2102601866e-01 3.6514517169e-01 -2.7635251973e-01 2.3799686472e-01 1.8428565751e-01 2.3799670746e-01 2.3396866031e-01 4.7420576038e-01 2.3799699184e-01 2.3799696742e-01 -1.5188392728e-01 -2.1096025295e-01 -2.3799683437e-01 1.8428560682e-01 -4.7420567091e-01 2.7635252826e-01 4.0451404970e-02 1.8428555314e-01 2.7635255066e-01 2.7635259624e-01 -3.3345929790e-02 -7.6475899643e-02 -2.7635250955e-01 5.0906208054e-01 -1.8428560064e-01 9.6424503878e-02 2.3799684871e-01 3.6514498951e-01 3.6514525569e-01 -7.6231155362e-02 -1.2102600178e-01 -3.6514498757e-01 2.7635259724e-01 -2.3799693697e-01 2.3396873034e-01 9.6424540469e-02 9.6424541458e-02 -4.8183278673e-01 -2.6063166922e-01 -9.6424498411e-02 4.0451404789e-02 -2.3396875981e-01 2.3799677386e-01 2.3799677930e-01 -1.5188366151e-01 -2.1096019023e-01 -2.3799678376e-01 1.8428567835e-01 -4.7420571080e-01 3.6514532865e-01 -7.6231275640e-02 -1.2102576711e-01 -3.6514529825e-01 2.7635223761e-01 -2.3799686278e-01 -7.6231128815e-02 -1.2102593882e-01 -3.6514519204e-01 2.7635248460e-01 -2.3799672625e-01 1.1347562302e+00 7.6231226770e-02 -3.3345923895e-02 1.5188384919e-01 1.2102590320e-01 -7.6476064047e-02 2.1096011136e-01 -2.7635251251e-01 2.3799670066e-01 -1.8428576155e-01 2.7386715827e-01 7.0293847490e-01 5.6786373000e-01 2.0165709426e-01 -1.0328444642e-01 -1.5347411246e-01 1.9632908404e-01 -5.3686189278e-02 -3.3471655997e-04 1.0131503772e-01 5.3686140172e-02 -2.1742931046e-01 -3.3447819438e-04 5.3686254815e-02 5.3686181957e-02 3.0367698721e-01 1.5982027110e-01 -5.3686113739e-02 1.0131509089e-01 3.3447328834e-04 