1.3322110106e-01 -3.3023032061e-01 -2.3915205979e-01 -1.0989717751e-02 3.5538931585e-01 3.8871800107e-01 2.6691200076e-01 3.0460269032e-01 1.7167655817e-01 5.3440313405e-03 -4.3874438622e-02 -3.8433502827e-01 -2.3963641138e-01 -3.6426541484e-01 -7.0213840663e-02 9.4808950433e-02 -1.0852062848e-01 1.7975278746e-02 -3.4397771030e-01 -2.0150154182e-02 -8.6243982875e-02 2.7070157642e-01 1.2688523497e-02 1.8345189908e-01 1.4272657824e-01 3.6653736223e-01 2.4677717033e-01 -5.7298103336e-01 1.9403919824e-01 -4.1601142109e-02 -4.3892381827e-02 5.4054716933e-02 -1.8238087491e-01 -2.9240560293e-01 -2.7815023097e-01 1.8019825415e-01 -2.5363322150e-01 4.0024793891e-01 2.3592161698e-01 -2.1792954403e-01 -4.0422049047e-01 -1.9053810077e-01 -1.9929262533e-01 -2.4317795277e-01 1.0207993477e-01 -2.5744666117e-01 2.6602384547e-01 1.0297093339e-01 1.3640520544e-01 -2.5112772041e-01 -9.3250868264e-02 -1.8077870406e-01 3.9095874071e-02 2.9287784705e-01 2.7723947314e-02 -1.4150217867e-01 -2.8245265419e-01 -1.3212189513e-01 -1.1448265054e-01 -1.8538274184e-01 -1.8581481062e-01 2.8217927129e-01 1.9138762801e-01 1.7687147543e-01 6.9022923674e-03 -2.3492099572e-01 -5.2375694670e-01 -1.7491574659e-01 -2.6016745436e-01 3.7758986139e-01 -2.1760397216e-01 3.7081078050e-02 6.0326942913e-01 1.6579296920e-01 2.0765939339e-01 1.0105441207e-02 -5.9820744729e-01 9.3403785632e-02 6.6394914958e-01 -1.2804460754e-01 8.6355417430e-02 -1.5514780449e-01 7.1863316632e-02 -2.4608495077e-01 -8.0032180845e-02 2.9848369404e-01 1.8116037043e-01 2.6750333363e-01 4.1122597583e-01 2.4160712187e-01 -1.2969849719e-01 -3.6913978322e-01 -3.0286799265e-01 -1.7806608076e-01 -1.5554651559e-02 -1.3809764018e-01 -8.0681280527e-02 -1.6048181360e-01 -2.6803028029e-01 3.0975349316e-01 2.5416788967e-01 2.1096692080e-01 -2.9269273108e-02 2.9725449213e-02 -3.2605254390e-01 -2.0617825489e-01 -2.7006031232e-01 -4.0292121548e-02 1.2556924918e-01 -7.2462984553e-02 6.8276606642e-02 -3.9927833249e-01 2.1598314203e-02 -4.4972252620e-02 -1.2821399432e-01 -5.4693972933e-02 -2.1363705927e-01 -3.2131059560e-02 5.8654103991e-02 -1.1517518837e-01 -4.2715227836e-03 -2.9196927300e-02 3.5821425081e-02 -3.8842657291e-01 1.5114492450e-02 7.2762188257e-02 -3.0734602306e-01 -3.2499617641e-01 -2.5788791190e-01 -3.5445920170e-01 -1.3078293363e-01 -1.3901383461e-01 -2.2732022181e-01 -2.2806568030e-01 -2.2544630238e-01 1.5330214392e-01 1.2224067905e-01 -1.1475066619e-01 -9.5381773531e-02 1.5175662575e-01 3.3371898950e-01 2.0718887006e-01 3.4061894743e-01 2.4498058756e-01 -2.7934012365e-01 -1.0979196407e-01 -1.4881703440e-01 -3.9983870164e-01 -9.4500864611e-03 4.1420687041e-02 8.3636040973e-02 -3.5008736452e-02 -5.6682742407e-03 6.6038119224e-02 -2.3706116611e-02 4.4737582552e-01 -1.2506483032e-01 -1.1473935961e-01 2.1842790284e-01 -2.7621748142e-01 -2.1462966451e-01 -1.3306527394e-01 4.6900401384e-01 2.2388241926e-01 1.4905379019e-01 2.4445182755e-02 1.9424378739e-01 7.7724067441e-02 2.9624377700e-01 -4.8619025571e-02 1.3128464627e-01 4.2755787930e-01 2.3618224919e-01 5.9196383851e-03 1.8379506932e-01 1.6821537703e-02 1.9733903352e-01 -2.5381058412e-01 -3.3510510599e-01 2.2010049458e-01 -7.3718060485e-02 6.2297898656e-01 8.9784235813e-02 2.7380605199e-03 3.2490972328e-02 4.8513065531e-01 -1.6303810717e-01 -1.1625172155e-01 3.0522793351e-02 -1.2428660562e-01 2.8253423154e-02 9.0794960357e-02 7.2433267990e-02 -2.5120912198e-01 2.3098346895e-01 -1.1251674240e-01 5.0172372933e-02 3.9307110005e-01 -2.3143580670e-02 -5.3190951595e-02 -2.1133783605e-01 -2.4846892322e-02 2.8896725993e-02 -1.2636644241e-01 5.3042303518e-02 3.6997025196e-01 5.7230074292e-02 2.4620956744e-01 -1.5010669548e-01 -7.4710366776e-02 