-9.3363158222e-02 -1.0091454434e+00 -2.1475108736e-02 -3.8638743390e-02 -4.8146077788e-01 -1.0091453333e+00 -2.6628431472e-01 -2.8532204807e-01 -4.6412194770e-01 -3.2681555546e-01 2.7210859356e-01 -4.7988979883e-01 7.1538369518e-02 -1.2927331740e-01 1.0023380243e-01 4.8626922152e-02 1.6644831476e-01 1.4729424128e-01 3.6806146191e-01 9.3363145529e-02 3.1259353000e-01 -1.0311337105e-01 3.8561690784e-01 9.3363240158e-02 8.8188217498e-02 1.9179837396e-01 -2.1010118084e-02 -1.1704743158e-01 -1.2855426541e-01 1.7956697888e-01 -3.8785052791e-01 -4.3125581133e-02 5.3771677209e-01 -4.8374044883e-01 7.4543308775e-01 9.6445877917e-02 2.7853795399e-02 2.1475370341e-02 3.8638422273e-02 4.8146089190e-01 1.0091452864e+00 2.6628428769e-01 2.8532222694e-01 4.6412189768e-01 3.2681556310e-01 -2.7210824835e-01 4.7988986734e-01 -7.1538331342e-02 1.2927375700e-01 -1.0023343204e-01 -4.8626375073e-02 -1.6644809661e-01 -1.4729430017e-01 -3.6806145812e-01 1.8662717741e-01 5.4419567267e-01 2.1474741428e-02 -2.4014014662e-01 -4.2489109159e-01 1.0512494427e-01 6.1966155426e-02 -5.0412384618e-02 -1.2131993466e-01 -1.1263980330e-01 1.5063228325e-01 2.1894937275e-01 -5.8810697469e-01 -1.6552563632e+00 2.1478069959e-01 -1.1217126675e-01 1.6322546716e-01 3.8638642988e-02 -8.1599498864e-01 2.1307004482e-01 -2.7017629685e-02 3.3790325282e-01 -1.4815675562e-01 4.1713202452e-01 -2.9475650296e-01 9.1075170288e-01 -3.6512692344e-01 1.9766163250e-01 -9.7553112733e-02 -4.6014579655e-01 -2.0086866483e-01 4.8146104259e-01 5.3761892008e-01 -1.4953869926e-01 5.8680106266e-01 5.2129075751e-02 -5.7855859370e-02 1.7113348129e-01 -2.7886814671e-01 -3.7919160329e-01 1.2710853660e-01 -4.1018623092e-01 -1.5430146028e-01 3.4998687159e-01 6.8668989474e-01 2.6628426621e-01 2.8532228431e-01 4.6412179869e-01 3.2681537005e-01 -2.7210762115e-01 4.7988986091e-01 -7.1538284329e-02 1.2927360926e-01 -1.0023340659e-01 -4.8626229945e-02 -1.6644883758e-01 -1.4729428351e-01 -3.6806174621e-01 2.1976694360e-01 -1.4980082359e-01 -2.7053532748e-01 2.4019770943e-01 4.9112858531e-02 1.0054840237e+00 -6.1214821651e-01 -2.6517057729e-01 -3.5623823036e-01 -7.3032065644e-02 3.1406737988e-01 -1.0439632609e+00 8.6221112290e-04 3.7085569616e-01 -7.0564818233e-01 -3.7592202334e-01 -6.9762373572e-02 1.9785213898e-01 -7.7584127382e-01 1.3888414798e-01 3.2384136240e-01 8.6899514687e-01 2.8070930143e-01 -5.0974467611e-01 -2.2433173132e-01 7.6347565023e-01 9.8681433030e-02 5.8286519029e-02 1.0109353765e-01 4.3439335089e-01 -3.4476203118e-01 8.6426461620e-01 -2.7187262125e-01 -5.1340024949e-01 2.1384731036e-01 -4.0831819299e-01 5.1810972359e-01 -4.0090959892e-01 2.6206213964e-01 5.4204224662e-03 2.6042801588e-01 -1.0872916861e-01 -4.0840426696e-01 3.5827648010e-03 -2.6773435570e-01 3.5939729173e-01 -2.5914097175e-01 9.8382774360e-03 -7.3399863881e-02 -1.1632142997e-01 -2.4702124098e-01 4.0978603233e-01 -3.6732093766e-01 2.2824258371e-01 8.2475349757e-02 -2.3540406678e-01 -7.1455467930e-03 -1.6823429414e-01 -2.0350446346e-01 4.7730896038e-01 8.3677764961e-01 7.5060750025e-01 5.1263492844e-02 -3.3763082117e-01 1.5685179687e-01 -6.3883839932e-02 -3.2743180843e-01 3.6872893709e-01 -9.4211438039e-01 -2.9579944369e-01 2.0820702417e-01 -4.1963846808e-01 6.4076485953e-01 2.4570707356e-01 2.4386736071e-01 1.8348522954e-02 -5.8735923203e-02 4.5180458892e-01 5.2685555054e-02 8.9331431413e-02 -5.2685435023e-02 7.6029398068e-02 -1.9477915813e-01 9.9808322790e-02 -5.2686373754e-02 4.2125289263e-02 -1.2281961747e-01 5.3607382121e-02 -1.5969172024e-01 5.0519650202e-01 -3.0402951449e-01 -2.0731068851e-02 -1.8443666520e-01 2.9905849589e-01 -1.6522171523e-01 -1.3977829452e-01 -1.5826717073e-01 -2.2460888330e-01 