1.2947501982e-02 6.3143357216e-02 4.8786044647e-02 1.1401693414e-02 -1.9587817507e-02 -2.4492027602e-02 7.5206695501e-02 -6.6617289226e-04 -6.7589436373e-03 6.6443792143e-03 -3.7064358148e-03 6.0849575671e-03 2.1454438308e-02 -3.5502526689e-02 -3.1614251741e-03 9.7564835277e-03 -9.6802031525e-03 -9.8908669364e-03 -1.9655544511e-04 -1.0705992619e-02 3.9067238283e-03 2.1038593279e-02 -5.8909622727e-02 -5.3584159764e-03 -9.2791012000e-03 -2.7069245158e-02 4.8584248217e-02 -3.0675733085e-02 6.2861259546e-03 -1.3471854537e-02 -1.7129430916e-03 3.7435477533e-02 2.5713159210e-03 2.5317385143e-02 -3.5225457585e-02 4.6526899697e-02 -9.3950518717e-03 -5.2873545091e-02 6.4683577470e-05 7.3760793967e-03 -4.2509047527e-03 -1.5057232106e-02 5.0390431360e-02 9.3044726710e-03 4.8004110642e-03 1.0870486506e-02 2.0690262254e-03 1.2444011504e-02 -3.8499567646e-02 -4.1165240841e-02 -3.9507765221e-02 4.2621662037e-03 1.9309828811e-02 -2.9091450111e-02 -3.8369270688e-02 3.2116665876e-02 -2.2059468848e-02 1.1214728082e-03 -3.0233068280e-02 -1.4316031061e-02 -4.8878911797e-02 -2.2805990707e-02 7.6824439380e-02 -2.7209833716e-02 5.5089902590e-03 -2.4295010953e-02 -8.2929020240e-03 -1.9245629650e-02 1.8063878930e-02 1.5671226344e-02 -3.8593263737e-03 3.0619513847e-02 -4.0484589351e-02 1.4469329446e-03 -6.1776629946e-03 1.6614238277e-02 -2.5480130692e-02 -1.6812869982e-02 -3.6502028422e-02 2.9757334362e-02 2.6610470479e-02 4.8134339873e-02 5.6744278731e-02 1.6211109440e-02 3.0581339686e-04 1.3932045115e-02 3.4515583497e-02 2.9260362979e-02 -1.9939953727e-02 2.1409341697e-02 -3.7975414781e-02 5.2124725625e-02 4.1814361883e-02 1.1324238624e-02 7.8932973271e-02 4.0494558985e-02 3.1855173053e-02 -4.9781709394e-02 1.0678083560e-02 -2.5408373969e-02 -5.4959095320e-04 -1.8622279035e-03 -5.0263476673e-02 4.2218642460e-02 -2.7798383000e-02 -4.3759704612e-02 9.0308246070e-03 -2.8011262505e-02 2.4829967697e-02 3.2148260473e-02 8.7000118932e-03 2.1520822562e-02 -1.8159430103e-03 -1.7994784513e-03 4.9133559591e-02 2.3484356333e-02 2.5163265084e-02 -8.6697192958e-03 1.2506607720e-02 8.1761168843e-03 5.6240653761e-02 -3.4728697700e-02 -2.5662193763e-02 -1.4688833532e-02 4.0679024210e-02 -3.2651476543e-02 -3.7976624922e-02 1.0030294321e-02 1.3087989118e-02 7.4571860839e-03 3.9997978261e-02 5.5137865888e-02 -8.2144373808e-03 -1.8235956673e-02 3.2095682064e-02 1.5587789701e-02 2.4989121704e-02 -1.1049072803e-03 4.4321203486e-02 -4.9017107597e-02 2.7369829592e-02 -8.3339100979e-03 -1.8253385430e-04 -7.5027769826e-03 6.6555435578e-02 2.1296530039e-02 -4.5125463521e-02 1.7933861310e-02 -4.2273176001e-02 -6.8807906461e-02 -1.9891981052e-02 -3.2637977799e-02 7.1032272372e-03 -6.1706232133e-03 -1.9246291211e-02 -1.4471331981e-02 -1.6107700304e-02 5.0515067687e-03 -2.4060491638e-02 4.5842027406e-02 1.6598873079e-02 -3.8342245511e-02 3.0651894556e-02 1.1200111117e-03 -4.7333287665e-02 6.2890798218e-02 7.2835954169e-02 2.7449418292e-02 -4.0283894456e-02 -3.5239505278e-02 1.2097432996e-02 6.5166958657e-02 2.5486489246e-03 1.0184672614e-02 4.9854897328e-02 2.6101905586e-02 2.2443537152e-02 3.0107457447e-02 -2.2699912962e-02 1.4150301804e-02 9.9532063390e-03 -3.2873032635e-02 -8.2962392194e-03 4.8884577735e-03 -1.6785085590e-02 -2.1983025947e-03 -3.4208958768e-02 1.3093655110e-02 1.3820895731e-02 -9.7435253848e-04 3.6330080700e-03 -9.4004439650e-03 -7.3556749588e-02 1.5870176857e-02 -4.0461905286e-02 5.6125816332e-03 1.9411151104e-02 1.5873932048e-02 1.5056901556e-02 -8.7255693114e-04 1.0217793814e-03 1.1367276119e-02 -2.9450571415e-02 -5.5407286203e-03 3.3414293052e-03 -2.2002833517e-02 -2.0813103947e-02 -1.4769412792e-02 -3.2748784926e-02 -5.7366535436e-03 