-3.4373741810e-03 4.1347275413e-01 1.1443029333e-01 -8.5036141630e-02 3.3575040141e-01 1.4249929854e-01 -2.6901474588e-02 8.9218760351e-01 6.6063860597e-01 2.0667918713e-01 2.0667977505e-01 1.7766786642e-01 3.7391786433e-01 2.7651510236e-01 -3.2263104597e-01 2.7806838439e-02 -3.4379076441e-02 -1.6881311962e-01 6.3879846132e-02 4.8341821189e-01 7.4442234754e-02 6.1571207635e-01 -5.9316257121e-01 3.3063224085e-01 -1.8907939284e-02 -1.5451280664e-01 3.8900833863e-02 1.8876808071e-01 1.8876808527e-01 1.0468601960e+00 -5.4732909716e-02 -1.5840496330e-01 4.2516448860e-01 8.6442787415e-01 -2.8932056269e-01 -7.4946190368e-01 3.9235384265e-01 -4.0163811773e-02 -2.4422937779e-01 -4.9169877852e-02 5.7062175969e-02 4.7364702254e-01 7.5415948318e-01 3.0217351572e-01 2.2680267570e-01 2.2680264196e-01 4.2880886619e-01 -1.2333833662e-01 -5.0718946608e-01 -7.8030967362e-01 -5.1435412028e-02 -2.7688954402e-01 -5.6308642950e-01 -6.2836471285e-01 -5.2984185822e-01 5.0601479420e-01 3.6770857242e-01 7.5713589292e-01 -5.5739672671e-03 1.5908419599e-01 4.5793105455e-01 4.5793049303e-01 1.1007076121e-01 1.8517829877e-01 1.7578378174e-02 -1.3441292490e-01 3.4893024625e-01 4.2526745319e-02 -7.0481463942e-02 6.3426729788e-01 2.8502969680e-01 3.5490744290e-01 2.7939146829e-01 8.1364674366e-02 -3.0770035860e-02 -1.1600747083e-01 -1.1600755335e-01 -7.9147602579e-02 -1.4446975345e-01 6.1397729413e-01 -1.7487363500e-02 -1.3572508460e-01 3.4523857483e-01 2.9278558475e-01 -4.4540425279e-01 -5.2038922742e-02 7.2870705968e-01 -1.6286234417e-01 8.3580488029e-02 6.6852679564e-02 6.6852733852e-02 -8.8777185815e-01 -1.4015284188e-01 1.9443666075e-01 -1.2825405544e-01 -4.4648835225e-01 -2.5796273736e-01 -2.3106879136e-01 -3.5308089556e-01 3.5172983084e-01 2.5758466682e-02 1.6264473802e-01 4.7199341059e-01 4.7199372959e-01 3.8402678999e-01 2.3935060318e-01 9.7414391791e-02 7.6224299868e-02 3.5170358927e-01 1.6666896668e-01 -4.5238288192e-01 4.4095171989e-01 -2.7331053831e-01 1.2156009638e-01 4.4645100644e-01 4.4645107456e-01 3.2750886839e-02 2.0202700480e-01 2.9668998023e-01 4.0361138591e-02 2.8873599326e-01 -4.0041690467e-01 9.4496072267e-02 -3.1612198449e-01 4.6814967414e-01 8.2732167362e-02 8.2732067316e-02 1.4475783771e-02 2.0545346838e-01 5.8057915408e-01 -7.3891200914e-01 4.1300141023e-01 2.6601128794e-01 -8.6400052036e-03 -1.7148207821e-01 2.3608843547e-01 2.3608797443e-01 2.9596569162e-01 5.4468650646e-01 7.6235548939e-02 -2.6886029222e-01 8.2221810263e-02 3.1714523385e-01 -3.4181573076e-01 1.1618563802e-01 5.6345983656e-01 2.2546390018e-01 3.3163761849e-01 1.9848717740e-01 1.8147437869e-02 4.5600653556e-01 3.1855595119e-01 -2.1439325824e-01 1.1224244255e-01 2.2546377287e-01 3.3163738987e-01 1.9848721256e-01 1.8147390010e-02 4.5600681940e-01 3.1855601966e-01 -2.1439338872e-01 1.1224250149e-01 -6.9449554986e-02 -9.3311045814e-02 4.4926307068e-01 -2.4753294026e-01 -2.7703622173e-01 -6.8382722923e-01 -7.6075579551e-02 2.6407044514e-01 7.1863509203e-02 1.8500746833e-01 1.7060807084e-01 5.5041025412e-02 7.3645198114e-01 3.9876734984e-02 3.6575648639e-01 7.3202171838e-01 1.2381087320e-01 1.0598907009e-01 -4.1036985073e-04 5.4037103152e-02 -5.6637923948e-01 4.8650691882e-01 3.2530138506e-01 8.8111681744e-02 -2.4736593144e-01 2.0318127145e-01 4.7271547718e-01 1.5532949584e-02 -6.0890595446e-01 6.9993348180e-02 6.0972507613e-02 -4.1264686592e-02 -4.5780220400e-01 -3.3294670004e-02 -7.3317947069e-02 2.5528042200e-01 -1.9078416021e-01 -4.1042728115e-01 -1.4140842625e-01 -1.4140843166e-01 -7.4404802844e-02 -2.3594674716e-01 1.4411359390e-01 3.9801507420e-01 2.1616625583e-02 2.4842216641e-01 5.2339466855e-02 2.8429234360e-02 